{"learner":{"attributes":{"scikit_learn":"{\"_estimator_type\": \"regressor\"}"},"feature_names":["si","ni","rpi","spi","AQI_lag_1"],"feature_types":["float","float","float","float","float"],"gradient_booster":{"model":{"gbtree_model_param":{"num_parallel_tree":"1","num_trees":"500"},"iteration_indptr":[0,1,2,3,4,5,6,7,8,9,10,11,12,13,14,15,16,17,18,19,20,21,22,23,24,25,26,27,28,29,30,31,32,33,34,35,36,37,38,39,40,41,42,43,44,45,46,47,48,49,50,51,52,53,54,55,56,57,58,59,60,61,62,63,64,65,66,67,68,69,70,71,72,73,74,75,76,77,78,79,80,81,82,83,84,85,86,87,88,89,90,91,92,93,94,95,96,97,98,99,100,101,102,103,104,105,106,107,108,109,110,111,112,113,114,115,116,117,118,119,120,121,122,123,124,125,126,127,128,129,130,131,132,133,134,135,136,137,138,139,140,141,142,143,144,145,146,147,148,149,150,151,152,153,154,155,156,157,158,159,160,161,162,163,164,165,166,167,168,169,170,171,172,173,174,175,176,177,178,179,180,181,182,183,184,185,186,187,188,189,190,191,192,193,194,195,196,197,198,199,200,201,202,203,204,205,206,207,208,209,210,211,212,213,214,215,216,217,218,219,220,221,222,223,224,225,226,227,228,229,230,231,232,233,234,235,236,237,238,239,240,241,242,243,244,245,246,247,248,249,250,251,252,253,254,255,256,257,258,259,260,261,262,263,264,265,266,267,268,269,270,271,272,273,274,275,276,277,278,279,280,281,282,283,284,285,286,287,288,289,290,291,292,293,294,295,296,297,298,299,300,301,302,303,304,305,306,307,308,309,310,311,312,313,314,315,316,317,318,319,320,321,322,323,324,325,326,327,328,329,330,331,332,333,334,335,336,337,338,339,340,341,342,343,344,345,346,347,348,349,350,351,352,353,354,355,356,357,358,359,360,361,362,363,364,365,366,367,368,369,370,371,372,373,374,375,376,377,378,379,380,381,382,383,384,385,386,387,388,389,390,391,392,393,394,395,396,397,398,399,400,401,402,403,404,405,406,407,408,409,410,411,412,413,414,415,416,417,418,419,420,421,422,423,424,425,426,427,428,429,430,431,432,433,434,435,436,437,438,439,440,441,442,443,444,445,446,447,448,449,450,451,452,453,454,455,456,457,458,459,460,461,462,463,464,465,466,467,468,469,470,471,472,473,474,475,476,477,478,479,480,481,482,483,484,485,486,487,488,489,490,491,492,493,494,495,496,497,498,499,500],"tree_info":[0,0,0,0,0,0,0,0,0,0,0,0,0,0,0,0,0,0,0,0,0,0,0,0,0,0,0,0,0,0,0,0,0,0,0,0,0,0,0,0,0,0,0,0,0,0,0,0,0,0,0,0,0,0,0,0,0,0,0,0,0,0,0,0,0,0,0,0,0,0,0,0,0,0,0,0,0,0,0,0,0,0,0,0,0,0,0,0,0,0,0,0,0,0,0,0,0,0,0,0,0,0,0,0,0,0,0,0,0,0,0,0,0,0,0,0,0,0,0,0,0,0,0,0,0,0,0,0,0,0,0,0,0,0,0,0,0,0,0,0,0,0,0,0,0,0,0,0,0,0,0,0,0,0,0,0,0,0,0,0,0,0,0,0,0,0,0,0,0,0,0,0,0,0,0,0,0,0,0,0,0,0,0,0,0,0,0,0,0,0,0,0,0,0,0,0,0,0,0,0,0,0,0,0,0,0,0,0,0,0,0,0,0,0,0,0,0,0,0,0,0,0,0,0,0,0,0,0,0,0,0,0,0,0,0,0,0,0,0,0,0,0,0,0,0,0,0,0,0,0,0,0,0,0,0,0,0,0,0,0,0,0,0,0,0,0,0,0,0,0,0,0,0,0,0,0,0,0,0,0,0,0,0,0,0,0,0,0,0,0,0,0,0,0,0,0,0,0,0,0,0,0,0,0,0,0,0,0,0,0,0,0,0,0,0,0,0,0,0,0,0,0,0,0,0,0,0,0,0,0,0,0,0,0,0,0,0,0,0,0,0,0,0,0,0,0,0,0,0,0,0,0,0,0,0,0,0,0,0,0,0,0,0,0,0,0,0,0,0,0,0,0,0,0,0,0,0,0,0,0,0,0,0,0,0,0,0,0,0,0,0,0,0,0,0,0,0,0,0,0,0,0,0,0,0,0,0,0,0,0,0,0,0,0,0,0,0,0,0,0,0,0,0,0,0,0,0,0,0,0,0,0,0,0,0,0,0,0,0,0,0,0,0,0,0,0,0,0,0,0,0,0,0,0,0,0,0,0,0,0,0,0,0,0,0,0,0,0,0,0,0,0,0,0,0,0,0,0,0,0,0,0,0,0,0,0,0,0,0,0,0,0,0,0,0,0,0,0,0,0],"trees":[{"base_weights":[1.7505621E0,-4.4785812E1,3.1249596E1,-3.1745741E0,-3.389241E1,1.0840805E1,4.8355675E1,-1.7903956E0,-4.5932236E-1,2.5805283E0,1.71467E1,1.7779983E0,3.5708864E0,8.629448E0,-2.9729068E0,4.8370895E-1,9.584145E-1,5.8549523E-1,2.0808716E-1,-6.1803894E0,3.363866E0,-1.9260788E-2,-7.532879E0,2.751526E-1,-2.2862626E-2,-4.3999505E-1,-9.329529E-2],"categories":[],"categories_nodes":[],"categories_segments":[],"categories_sizes":[],"default_left":[0,0,0,0,0,0,0,0,0,0,0,0,0,0,0,0,0,0,0,0,0,0,0,0,0,0,0],"id":0,"left_children":[1,3,5,-1,7,9,11,-1,-1,13,15,-1,-1,17,19,-1,-1,-1,-1,21,23,-1,25,-1,-1,-1,-1],"loss_changes":[1.167129E5,4.5724766E3,1.7629734E4,0E0,7.5950977E2,1.2579634E3,5.7230547E3,0E0,0E0,4.2876193E2,2.6051758E1,0E0,0E0,3.3841827E1,1.6306563E2,0E0,0E0,0E0,0E0,3.6287766E1,2.7038528E1,0E0,1.2300964E1,0E0,0E0,0E0,0E0],"parents":[2147483647,0,0,1,1,2,2,4,4,5,5,6,6,9,9,10,10,13,13,14,14,19,19,20,20,22,22],"right_children":[2,4,6,-1,8,10,12,-1,-1,14,16,-1,-1,18,20,-1,-1,-1,-1,22,24,-1,26,-1,-1,-1,-1],"split_conditions":[1.9124464E2,1.4932558E2,2.4066553E2,-3.1745741E0,1.8734938E2,2.1982526E2,2.6012665E2,-1.7903956E0,-4.5932236E-1,2.3163838E2,2.2651262E2,1.7779983E0,3.5708864E0,1.9720169E2,2.1146606E2,4.8370895E-1,9.584145E-1,5.8549523E-1,2.0808716E-1,3.553767E1,2.4121733E1,-1.9260788E-2,2.3645588E1,2.751526E-1,-2.2862626E-2,-4.3999505E-1,-9.329529E-2],"split_indices":[3,3,3,0,3,3,3,0,0,4,3,0,0,4,3,0,0,0,0,1,0,0,0,0,0,0,0],"split_type":[0,0,0,0,0,0,0,0,0,0,0,0,0,0,0,0,0,0,0,0,0,0,0,0,0,0,0],"sum_hessian":[8.3E1,3.2E1,5.1E1,1E1,2.2E1,2.4E1,2.7E1,2E1,2E0,1.1E1,1.3E1,1.9E1,8E0,5E0,6E0,4E0,9E0,2E0,3E0,4E0,2E0,1E0,3E0,1E0,1E0,2E0,1E0],"tree_param":{"num_deleted":"0","num_feature":"5","num_nodes":"27","size_leaf_vector":"1"}},{"base_weights":[1.2414865E0,-3.877097E1,3.0857351E1,-2.8838344E0,-2.7532042E1,1.9198994E1,3.5030847E0,-2.9505713E1,-1.9074453E0,8.244137E0,1.5141467E0,-1.7046902E0,-1.7560907E1,-2.59721E-1,1.166626E-1,-4.7227785E-1,9.477557E0,-9.916191E-1,-6.4071655E0,5.202887E0,6.639618E-1,-9.141388E-2,-3.8912353E-1,5.6597877E-1,2.847592E0,-1.6732292E0,5.02412E0,8.935471E-2,-1.7111842E-1,3.3288625E-1,3.0391326E0,6.862233E-1,2.189499E-1,7.375794E-2,-2.2291183E-2],"categories":[],"categories_nodes":[],"categories_segments":[],"categories_sizes":[],"default_left":[0,0,0,0,0,0,0,0,0,0,0,0,0,0,0,0,0,0,0,0,0,0,0,0,0,0,0,0,0,0,0,0,0,0,0],"id":1,"left_children":[1,3,5,-1,7,9,-1,11,13,15,-1,-1,17,-1,-1,-1,19,-1,21,23,-1,-1,-1,-1,25,27,29,-1,-1,-1,31,33,-1,-1,-1],"loss_changes":[1.1140169E5,6.911246E3,2.3336031E4,0E0,1.3092324E3,4.9715293E3,0E0,7.71375E2,5.3937084E1,5.91354E2,0E0,0E0,1.0094946E2,0E0,0E0,0E0,2.8843005E2,0E0,4.663582E0,1.4064572E2,0E0,0E0,0E0,0E0,1.0680342E2,3.0326439E1,2.465088E0,0E0,0E0,0E0,1.2757938E1,3.3369966E0,0E0,0E0,0E0],"parents":[2147483647,0,0,1,1,2,2,4,4,5,5,7,7,8,8,9,9,12,12,16,16,18,18,19,19,24,24,25,25,26,26,30,30,31,31],"right_children":[2,4,6,-1,8,10,-1,12,14,16,-1,-1,18,-1,-1,-1,20,-1,22,24,-1,-1,-1,-1,26,28,30,-1,-1,-1,32,34,-1,-1,-1],"split_conditions":[1.958116E2,1.4932558E2,2.6012665E2,-2.8838344E0,2.6053625E2,2.3574223E2,3.5030847E0,1.8457289E2,2.2677622E1,1.7219866E1,1.5141467E0,-1.7046902E0,2.783264E1,-2.59721E-1,1.166626E-1,-4.7227785E-1,2.1982526E2,-9.916191E-1,3.037753E1,1.9720169E2,6.639618E-1,-9.141388E-2,-3.8912353E-1,5.6597877E-1,2.1146606E2,2.08525E2,3.8734703E1,8.935471E-2,-1.7111842E-1,3.3288625E-1,4.2738293E1,2.1529696E1,2.189499E-1,7.375794E-2,-2.2291183E-2],"split_indices":[3,3,3,0,4,3,0,3,0,0,0,0,0,0,0,0,3,0,0,4,0,0,0,0,3,3,1,0,0,0,1,0,0,0,0],"split_type":[0,0,0,0,0,0,0,0,0,0,0,0,0,0,0,0,0,0,0,0,0,0,0,0,0,0,0,0,0,0,0,0,0,0,0],"sum_hessian":[9.2E1,3.9E1,5.3E1,1.3E1,2.6E1,4.2E1,1.1E1,2.4E1,2E0,2.2E1,2E1,1.6E1,8E0,1E0,1E0,1E0,2.1E1,6E0,2E0,1.1E1,1E1,1E0,1E0,2E0,9E0,3E0,6E0,1E0,2E0,2E0,4E0,2E0,2E0,1E0,1E0],"tree_param":{"num_deleted":"0","num_feature":"5","num_nodes":"35","size_leaf_vector":"1"}},{"base_weights":[5.637107E-1,-3.835022E1,2.8453629E1,-4.4845837E1,-1.8329536E1,2.007555E1,3.3591251E0,-2.814275E0,-1.8232329E0,-2.0320438E1,-6.246984E0,7.0506473E0,2.8497683E1,-1.0797176E0,-2.53228E-1,-8.9128494E-2,-3.793953E-1,-4.6047097E-1,8.465618E0,9.583007E-1,1.6429745E0,5.4049474E-1,4.1840363E0,5.808512E-3,5.575811E0,8.712082E-2,-8.668518E-2,8.501587E-1,3.8630486E-1,8.549576E-2,-2.1733856E-2],"categories":[],"categories_nodes":[],"categories_segments":[],"categories_sizes":[],"default_left":[0,0,0,0,0,0,0,0,0,0,0,0,0,0,0,0,0,0,0,0,0,0,0,0,0,0,0,0,0,0,0],"id":2,"left_children":[1,3,5,7,9,11,-1,-1,-1,13,15,17,19,-1,-1,-1,-1,-1,21,-1,-1,-1,23,25,27,-1,-1,29,-1,-1,-1],"loss_changes":[9.8768766E4,4.1197734E3,1.5848375E4,6.3214844E2,1.3766553E2,4.735459E3,0E0,0E0,0E0,6.554639E1,4.433319E0,5.1510645E2,4.6919336E2,0E0,0E0,0E0,0E0,0E0,1.3544092E2,0E0,0E0,0E0,4.6488815E1,1.2083385E1,5.4400635E1,0E0,0E0,4.0571985E0,0E0,0E0,0E0],"parents":[2147483647,0,0,1,1,2,2,3,3,4,4,5,5,9,9,10,10,11,11,12,12,18,18,22,22,23,23,24,24,27,27],"right_children":[2,4,6,8,10,12,-1,-1,-1,14,16,18,20,-1,-1,-1,-1,-1,22,-1,-1,-1,24,26,28,-1,-1,30,-1,-1,-1],"split_conditions":[1.958116E2,1.8565115E2,2.6012665E2,1.4834207E2,2.9441025E1,2.3030986E2,3.3591251E0,-2.814275E0,-1.8232329E0,2.433803E2,3.037753E1,1.7219866E1,2.4522565E2,-1.0797176E0,-2.53228E-1,-8.9128494E-2,-3.793953E-1,-4.6047097E-1,4.123456E1,9.583007E-1,1.6429745E0,5.4049474E-1,2.1100977E2,2.4875067E1,4.3097076E1,8.712082E-2,-8.668518E-2,2.620632E1,3.8630486E-1,8.549576E-2,-2.1733856E-2],"split_indices":[3,3,3,3,0,3,0,0,0,4,0,0,3,0,0,0,0,0,1,0,0,0,3,0,1,0,0,0,0,0,0],"split_type":[0,0,0,0,0,0,0,0,0,0,0,0,0,0,0,0,0,0,0,0,0,0,0,0,0,0,0,0,0,0,0],"sum_hessian":[8.9E1,3.7E1,5.2E1,2.7E1,1E1,4.4E1,8E0,9E0,1.8E1,8E0,2E0,1.8E1,2.6E1,7E0,1E0,1E0,1E0,1E0,1.7E1,1E1,1.6E1,1E1,7E0,2E0,5E0,1E0,1E0,2E0,3E0,1E0,1E0],"tree_param":{"num_deleted":"0","num_feature":"5","num_nodes":"31","size_leaf_vector":"1"}},{"base_weights":[2.9786243E0,-3.4569084E1,3.0503906E1,-2.305708E0,-2.5126118E1,2.200631E1,3.291293E0,-2.662608E1,1.5932655E-1,1.0336707E1,2.8341206E1,-2.8517826E1,-1.1456699E1,-3.452568E-2,1.1117889E1,9.4985926E-1,1.5719353E0,-1.4600934E0,-4.2222825E-1,-7.058464E-1,-8.690033E-2,6.461652E-1,4.9224E0,-8.451805E-2,3.4990904E-1],"categories":[],"categories_nodes":[],"categories_segments":[],"categories_sizes":[],"default_left":[0,0,0,0,0,0,0,0,0,0,0,0,0,0,0,0,0,0,0,0,0,0,0,0,0],"id":3,"left_children":[1,3,5,-1,7,9,-1,11,-1,13,15,17,19,-1,21,-1,-1,-1,-1,-1,-1,-1,23,-1,-1],"loss_changes":[8.786944E4,2.766039E3,1.3258848E4,0E0,1.0191377E3,2.738E3,0E0,2.7590918E2,0E0,1.4550537E2,1.5527344E2,5.595703E-1,7.888043E1,0E0,1.0416785E2,0E0,0E0,0E0,0E0,0E0,0E0,0E0,8.0462654E1,0E0,0E0],"parents":[2147483647,0,0,1,1,2,2,4,4,5,5,7,7,9,9,10,10,11,11,12,12,14,14,22,22],"right_children":[2,4,6,-1,8,10,-1,12,-1,14,16,18,20,-1,22,-1,-1,-1,-1,-1,-1,-1,24,-1,-1],"split_conditions":[1.958116E2,1.5446992E2,2.6929166E2,-2.305708E0,2.433803E2,2.3671477E2,3.291293E0,1.887174E2,1.5932655E-1,1.9601666E2,2.4522565E2,2.4208214E2,2.783264E1,-3.452568E-2,4.1205784E1,9.4985926E-1,1.5719353E0,-1.4600934E0,-4.2222825E-1,-7.058464E-1,-8.690033E-2,6.461652E-1,2.1100977E2,-8.451805E-2,3.4990904E-1],"split_indices":[3,3,3,0,4,3,0,3,0,3,3,4,0,0,1,0,0,0,0,0,0,0,3,0,0],"split_type":[0,0,0,0,0,0,0,0,0,0,0,0,0,0,0,0,0,0,0,0,0,0,0,0,0],"sum_hessian":[8.3E1,3.5E1,4.8E1,1.4E1,2.1E1,4E1,8E0,2E1,1E0,1.5E1,2.5E1,1.7E1,3E0,1E0,1.4E1,8E0,1.7E1,1.6E1,1E0,2E0,1E0,1E1,4E0,1E0,3E0],"tree_param":{"num_deleted":"0","num_feature":"5","num_nodes":"25","size_leaf_vector":"1"}},{"base_weights":[-1.4389785E-1,-3.276778E1,3.0485542E1,-2.5903213E0,-2.188436E1,2.14085E1,2.9948184E0,-2.8094471E1,-9.710479E0,8.371181E0,2.689282E1,-1.518607E0,-1.1390762E1,-7.69047E-1,-3.462871E0,4.6492805E0,5.969259E-1,9.8017466E-1,1.5013757E0,-7.028989E-1,-8.472786E-2,-7.6599617E0,1.5999374E0,3.146803E-1,2.4039643E0,-3.3662416E-2,-4.882225E-1,1.6159922E-1,-8.240509E-2,1.6411845E-1,1.9212443E-1,4.2247392E-2,-2.9938508E-2],"categories":[],"categories_nodes":[],"categories_segments":[],"categories_sizes":[],"default_left":[0,0,0,0,0,0,0,0,0,0,0,0,0,0,0,0,0,0,0,0,0,0,0,0,0,0,0,0,0,0,0,0,0],"id":4,"left_children":[1,3,5,-1,7,9,-1,11,13,15,17,-1,19,-1,21,23,-1,-1,-1,-1,-1,25,27,-1,29,-1,-1,-1,-1,31,-1,-1,-1],"loss_changes":[9.492857E4,8.397703E3,1.1798906E4,0E0,2.0708262E3,2.5634102E3,0E0,4.1494727E2,3.7185974E2,1.1709906E2,2.8298828E1,0E0,7.962543E1,0E0,1.6099893E2,1.4406631E1,0E0,0E0,0E0,0E0,0E0,5.2239914E1,2.6530449E1,0E0,1.5479736E1,0E0,0E0,0E0,0E0,2.0641205E0,0E0,0E0,0E0],"parents":[2147483647,0,0,1,1,2,2,4,4,5,5,7,7,8,8,9,9,10,10,12,12,14,14,15,15,21,21,22,22,24,24,29,29],"right_children":[2,4,6,-1,8,10,-1,12,14,16,18,-1,20,-1,22,24,-1,-1,-1,-1,-1,26,28,-1,30,-1,-1,-1,-1,32,-1,-1,-1],"split_conditions":[2.1146606E2,1.5136739E2,2.6012665E2,-2.5903213E0,2.2078752E2,2.3671477E2,2.9948184E0,1.9144145E2,2.2677622E1,2.1982526E2,2.468799E2,-1.518607E0,1.8834015E2,-7.69047E-1,3.737024E1,3.8219162E1,5.969259E-1,9.8017466E-1,1.5013757E0,-7.028989E-1,-8.472786E-2,2.3584888E1,2.4875067E1,3.146803E-1,4.2738293E1,-3.3662416E-2,-4.882225E-1,1.6159922E-1,-8.240509E-2,2.1529696E1,1.9212443E-1,4.2247392E-2,-2.9938508E-2],"split_indices":[3,3,3,0,4,3,0,3,0,3,3,0,4,0,1,1,0,0,0,0,0,0,0,0,1,0,0,0,0,0,0,0,0],"split_type":[0,0,0,0,0,0,0,0,0,0,0,0,0,0,0,0,0,0,0,0,0,0,0,0,0,0,0,0,0,0,0,0,0],"sum_hessian":[9.3E1,4.5E1,4.8E1,1.5E1,3E1,3.8E1,1E1,1.9E1,1.1E1,1.2E1,2.6E1,1.6E1,3E0,5E0,6E0,7E0,5E0,1E1,1.6E1,2E0,1E0,3E0,3E0,3E0,4E0,1E0,2E0,2E0,1E0,2E0,2E0,1E0,1E0],"tree_param":{"num_deleted":"0","num_feature":"5","num_nodes":"33","size_leaf_vector":"1"}},{"base_weights":[-2.2832778E0,-3.4979103E1,2.4400047E1,-2.670088E0,-2.4601803E1,1.718267E1,2.9288871E0,-2.6244287E1,-1.0713501E0,3.784725E0,2.2925999E1,-1.3546957E0,-8.260956E-2,-2.3165436E-1,1.513031E-1,-4.458874E-1,5.329026E0,8.049512E-1,1.40014E0,5.840787E-1,3.2968037E0,-1.7622757E0,5.1789722E0,8.301544E-2,-1.7282867E-1,4.11911E-2,5.620388E0,6.980743E-2,3.0122006E-1],"categories":[],"categories_nodes":[],"categories_segments":[],"categories_sizes":[],"default_left":[0,0,0,0,0,0,0,0,0,0,0,0,0,0,0,0,0,0,0,0,0,0,0,0,0,0,0,0,0],"id":5,"left_children":[1,3,5,-1,7,9,-1,11,13,15,17,-1,-1,-1,-1,-1,19,-1,-1,-1,21,23,25,-1,-1,-1,27,-1,-1],"loss_changes":[8.547952E4,7.0980312E3,1.2313838E4,0E0,1.1313359E3,3.452875E3,0E0,5.402676E2,5.780172E1,3.4176965E2,6.582754E2,0E0,0E0,0E0,0E0,0E0,1.4222525E2,0E0,0E0,0E0,1.2339122E2,2.893449E1,1.2671707E1,0E0,0E0,0E0,5.2422028E0,0E0,0E0],"parents":[2147483647,0,0,1,1,2,2,4,4,5,5,7,7,8,8,9,9,10,10,16,16,20,20,21,21,22,22,26,26],"right_children":[2,4,6,-1,8,10,-1,12,14,16,18,-1,-1,-1,-1,-1,20,-1,-1,-1,22,24,26,-1,-1,-1,28,-1,-1],"split_conditions":[1.958116E2,1.4932558E2,2.6012665E2,-2.670088E0,2.612901E2,2.2507494E2,2.9288871E0,2.951805E1,2.2677622E1,1.7219866E1,2.4522565E2,-1.3546957E0,-8.260956E-2,-2.3165436E-1,1.513031E-1,-4.458874E-1,1.9024437E1,8.049512E-1,1.40014E0,5.840787E-1,2.1146606E2,2.08525E2,2.1529696E1,8.301544E-2,-1.7282867E-1,4.11911E-2,2.1717444E2,6.980743E-2,3.0122006E-1],"split_indices":[3,3,3,0,4,3,0,0,0,0,3,0,0,0,0,0,0,0,0,0,3,3,0,0,0,0,3,0,0],"split_type":[0,0,0,0,0,0,0,0,0,0,0,0,0,0,0,0,0,0,0,0,0,0,0,0,0,0,0,0,0],"sum_hessian":[9.6E1,4.3E1,5.3E1,1.4E1,2.9E1,4.5E1,8E0,2.7E1,2E0,1.4E1,3.1E1,2.6E1,1E0,1E0,1E0,1E0,1.3E1,1.5E1,1.6E1,2E0,1.1E1,3E0,8E0,1E0,2E0,1E0,7E0,1E0,6E0],"tree_param":{"num_deleted":"0","num_feature":"5","num_nodes":"29","size_leaf_vector":"1"}},{"base_weights":[2.1634395E0,-3.3173233E1,2.4443382E1,-4.654164E1,-2.3593626E1,1.5342258E1,5.729408E1,-2.58242E0,-1.3509893E0,-2.5691416E1,-1.0445658E0,3.0544612E0,2.2440123E1,1.7193228E0,3.4372158E0,-2.542816E-1,-1.3233712E0,-2.2586289E-1,1.4752045E-1,-4.3474007E-1,4.2570534E0,8.323396E-1,1.3368725E0,5.4902804E-1,2.031976E0,-1.900683E0,4.4279733E0,-3.4500885E-1,-1.6706772E-1,5.1650734E0,-3.672066E-2,-7.69605E-2,8.093987E-2,4.0161517E-2,5.6734467E0,3.0826366E-1,6.806221E-2],"categories":[],"categories_nodes":[],"categories_segments":[],"categories_sizes":[],"default_left":[0,0,0,0,0,0,0,0,0,0,0,0,0,0,0,0,0,0,0,0,0,0,0,0,0,0,0,0,0,0,0,0,0,0,0,0,0],"id":6,"left_children":[1,3,5,7,9,11,13,-1,-1,15,17,19,21,-1,-1,-1,-1,-1,-1,-1,23,-1,-1,-1,25,27,29,31,-1,33,-1,-1,-1,-1,35,-1,-1],"loss_changes":[7.324238E4,3.5122188E3,1.6162738E4,1.796875E-1,1.0611367E3,3.9434463E3,7.836992E2,0E0,0E0,2.011914E2,5.494771E1,2.913465E2,2.7688574E2,0E0,0E0,0E0,0E0,0E0,0E0,0E0,2.320133E2,0E0,0E0,0E0,1.4033316E2,1.2294493E1,3.804004E1,1.1872386E1,0E0,1.3182465E1,0E0,0E0,0E0,0E0,6.4535675E0,0E0,0E0],"parents":[2147483647,0,0,1,1,2,2,3,3,4,4,5,5,6,6,9,9,10,10,11,11,12,12,20,20,24,24,25,25,26,26,27,27,29,29,34,34],"right_children":[2,4,6,8,10,12,14,-1,-1,16,18,20,22,-1,-1,-1,-1,-1,-1,-1,24,-1,-1,-1,26,28,30,32,-1,34,-1,-1,-1,-1,36,-1,-1],"split_conditions":[1.9144145E2,1.5446992E2,2.6929166E2,2.059456E1,2.6053625E2,2.266791E2,2.900627E2,-2.58242E0,-1.3509893E0,1.5211479E2,2.2677622E1,1.7219866E1,2.4522565E2,1.7193228E0,3.4372158E0,-2.542816E-1,-1.3233712E0,-2.2586289E-1,1.4752045E-1,-4.3474007E-1,2.0399239E1,8.323396E-1,1.3368725E0,5.4902804E-1,2.1146606E2,2.08525E2,2.620632E1,1.9601666E2,-1.6706772E-1,2.1529696E1,-3.672066E-2,-7.69605E-2,8.093987E-2,4.0161517E-2,2.6011461E1,3.0826366E-1,6.806221E-2],"split_indices":[3,3,3,0,4,3,3,0,0,4,0,0,3,0,0,0,0,0,0,0,0,0,0,0,3,3,0,3,0,0,0,0,0,0,0,0,0],"split_type":[0,0,0,0,0,0,0,0,0,0,0,0,0,0,0,0,0,0,0,0,0,0,0,0,0,0,0,0,0,0,0,0,0,0,0,0,0],"sum_hessian":[9.1E1,3.5E1,5.6E1,1.3E1,2.2E1,4.5E1,1.1E1,9E0,4E0,2E1,2E0,1.7E1,2.8E1,5E0,6E0,1E0,1.9E1,1E0,1E0,1E0,1.6E1,1.4E1,1.4E1,3E0,1.3E1,5E0,8E0,3E0,2E0,7E0,1E0,2E0,1E0,1E0,6E0,5E0,1E0],"tree_param":{"num_deleted":"0","num_feature":"5","num_nodes":"37","size_leaf_vector":"1"}},{"base_weights":[-1.6617002E0,-2.9129726E1,2.3453926E1,-4.4816917E1,-1.7752342E1,1.0865841E1,3.454026E1,-5.205012E1,-1.508665E0,-2.3658575E1,-5.936513E0,6.7174306E0,7.390352E-1,1.4428028E0,2.7873638E0,-2.7327046E0,-7.1535987E-1,-2.4940685E1,-7.862015E-2,-9.432086E0,-5.545227E-1,3.990687E-1,3.0988464E0,-2.4792443E-1,-1.2971133E0,-3.2972336E-2,-5.527362E-1,-2.2021638E-1,1.5090103E0,-3.580246E-2,2.1157913E-1,1.484993E-1,-7.1847916E-2],"categories":[],"categories_nodes":[],"categories_segments":[],"categories_sizes":[],"default_left":[0,0,0,0,0,0,0,0,0,0,0,0,0,0,0,0,0,0,0,0,0,0,0,0,0,0,0,0,0,0,0,0,0],"id":7,"left_children":[1,3,5,7,9,11,13,15,-1,17,19,21,-1,-1,-1,-1,-1,23,-1,25,27,-1,29,-1,-1,-1,-1,-1,31,-1,-1,-1,-1],"loss_changes":[6.0702473E4,6.7005234E3,6.044254E3,2.3011719E2,1.6740137E3,2.742422E2,1.2844316E3,2.0086914E2,0E0,4.421709E2,1.8290112E2,3.4724854E1,0E0,0E0,0E0,0E0,0E0,1.9158594E2,0E0,7.81189E1,4.6367172E1,0E0,2.4636375E1,0E0,0E0,0E0,0E0,0E0,2.14837E1,0E0,0E0,0E0,0E0],"parents":[2147483647,0,0,1,1,2,2,3,3,4,4,5,5,6,6,7,7,9,9,10,10,11,11,17,17,19,19,20,20,22,22,28,28],"right_children":[2,4,6,8,10,12,14,16,-1,18,20,22,-1,-1,-1,-1,-1,24,-1,26,28,-1,30,-1,-1,-1,-1,-1,32,-1,-1,-1,-1],"split_conditions":[2.1146606E2,1.558429E2,2.4522565E2,1.433E2,2.08525E2,2.266791E2,3.025E2,2.1362724E1,-1.508665E0,1.9144145E2,3.962265E1,4.133414E1,7.390352E-1,1.4428028E0,2.7873638E0,-2.7327046E0,-7.1535987E-1,1.5211479E2,-7.862015E-2,3.553767E1,2.2677622E1,3.990687E-1,4.2738293E1,-2.4792443E-1,-1.2971133E0,-3.2972336E-2,-5.527362E-1,-2.2021638E-1,2.4875067E1,-3.580246E-2,2.1157913E-1,1.484993E-1,-7.1847916E-2],"split_indices":[3,3,3,3,4,3,3,0,0,3,1,1,0,0,0,0,0,4,0,1,0,0,1,0,0,0,0,0,0,0,0,0,0],"split_type":[0,0,0,0,0,0,0,0,0,0,0,0,0,0,0,0,0,0,0,0,0,0,0,0,0,0,0,0,0,0,0,0,0],"sum_hessian":[8.6E1,4.1E1,4.5E1,1.6E1,2.5E1,2.2E1,2.3E1,9E0,7E0,1.6E1,9E0,1.2E1,1E1,2E1,3E0,8E0,1E0,1.5E1,1E0,5E0,4E0,8E0,4E0,1E0,1.4E1,1E0,4E0,1E0,3E0,1E0,3E0,2E0,1E0],"tree_param":{"num_deleted":"0","num_feature":"5","num_nodes":"33","size_leaf_vector":"1"}},{"base_weights":[1.8473946E0,-3.1059397E1,2.2922556E1,-2.4049206E0,-2.3001415E1,1.5454111E1,5.0033516E1,-2.4874561E1,-6.462013E-1,7.7625055E0,1.0902482E0,1.5785885E0,3.007817E0,-1.3049134E0,-9.240804E0,1.1687444E1,5.4133677E0,-8.3318025E-1,1.4011994E-1,6.3198495E-1,1.493477E-1,-1.5142937E0,7.2714744E0,7.520409E-2,-1.5108897E-1,2.9180909E-2,3.9132026E-1],"categories":[],"categories_nodes":[],"categories_segments":[],"categories_sizes":[],"default_left":[0,0,0,0,0,0,0,0,0,0,0,0,0,0,0,0,0,0,0,0,0,0,0,0,0,0,0],"id":8,"left_children":[1,3,5,-1,7,9,11,13,-1,15,-1,-1,-1,-1,17,19,21,-1,-1,-1,-1,23,25,-1,-1,-1,-1],"loss_changes":[6.0354336E4,3.561871E3,9.958037E3,0E0,1.5043066E2,1.9312139E3,1.564961E2,1.4145312E2,0E0,1.303562E2,0E0,0E0,0E0,0E0,3.1488092E2,2.0241516E1,2.040961E2,0E0,0E0,0E0,0E0,2.2745636E1,3.9967957E1,0E0,0E0,0E0,0E0],"parents":[2147483647,0,0,1,1,2,2,4,4,5,5,6,6,7,7,9,9,14,14,15,15,16,16,21,21,22,22],"right_children":[2,4,6,-1,8,10,12,14,-1,16,-1,-1,-1,-1,18,20,22,-1,-1,-1,-1,24,26,-1,-1,-1,-1],"split_conditions":[1.9415695E2,1.4631662E2,2.5898856E2,-2.4049206E0,1.8565115E2,2.3671477E2,3.025E2,2.612901E2,-6.462013E-1,2.1114493E2,1.0902482E0,1.5785885E0,3.007817E0,-1.3049134E0,1.7643892E1,4.5865864E1,2.1146606E2,-8.3318025E-1,1.4011994E-1,6.3198495E-1,1.493477E-1,2.08525E2,2.241243E2,7.520409E-2,-1.5108897E-1,2.9180909E-2,3.9132026E-1],"split_indices":[3,3,3,0,3,3,3,4,0,4,0,0,0,0,0,1,3,0,0,0,0,3,4,0,0,0,0],"split_type":[0,0,0,0,0,0,0,0,0,0,0,0,0,0,0,0,0,0,0,0,0,0,0,0,0,0,0],"sum_hessian":[8.5E1,3.3E1,5.2E1,9E0,2.4E1,4.2E1,1E1,1.9E1,5E0,2E1,2.2E1,5E0,5E0,1.7E1,2E0,6E0,1.4E1,1E0,1E0,5E0,1E0,3E0,1.1E1,1E0,2E0,1E0,1E1],"tree_param":{"num_deleted":"0","num_feature":"5","num_nodes":"27","size_leaf_vector":"1"}},{"base_weights":[-4.2078888E-1,-2.9836473E1,2.0122627E1,-2.542043E0,-2.3240755E1,1.3370027E1,2.3910906E0,-2.3935474E1,-9.009786E0,5.4102707E0,1.02012E0,-1.295134E0,-1.5779629E1,-8.1235087E-1,1.366169E-1,-8.432185E-2,6.204263E0,-3.5223064E-1,-9.8058575E-1,1.0152944E1,4.2111735E0,5.509311E-1,1.4561386E-1,-1.45755E0,5.749817E0,7.332382E-2,-1.4605255E-1,2.8451538E-2,6.1690674E0,3.261441E0,3.682324E-1,2.2618543E-1,-4.4690706E-2],"categories":[],"categories_nodes":[],"categories_segments":[],"categories_sizes":[],"default_left":[0,0,0,0,0,0,0,0,0,0,0,0,0,0,0,0,0,0,0,0,0,0,0,0,0,0,0,0,0,0,0,0,0],"id":9,"left_children":[1,3,5,-1,7,9,-1,11,13,15,-1,-1,17,-1,-1,-1,19,-1,-1,21,23,-1,-1,25,27,-1,-1,-1,29,31,-1,-1,-1],"loss_changes":[5.4382973E4,3.9443633E3,9.273822E3,0E0,8.094238E1,2.35256E3,0E0,4.050293E1,2.9933368E2,1.3442725E2,0E0,0E0,1.2962976E2,0E0,0E0,0E0,1.1464563E2,0E0,0E0,5.519287E0,1.392128E2,0E0,0E0,2.1400915E1,2.2554169E1,0E0,0E0,0E0,1.4219971E1,3.0268574E1,0E0,0E0,0E0],"parents":[2147483647,0,0,1,1,2,2,4,4,5,5,7,7,8,8,9,9,12,12,16,16,19,19,20,20,23,23,24,24,28,28,29,29],"right_children":[2,4,6,-1,8,10,-1,12,14,16,-1,-1,18,-1,-1,-1,20,-1,-1,22,24,-1,-1,26,28,-1,-1,-1,30,32,-1,-1,-1],"split_conditions":[1.9415695E2,1.3244444E2,2.6929166E2,-2.542043E0,2.612901E2,2.3383191E2,2.3910906E0,1.8457289E2,1.7643892E1,1.9601666E2,1.02012E0,-1.295134E0,2.2673138E1,-8.1235087E-1,1.366169E-1,-8.432185E-2,2.1114493E2,-3.5223064E-1,-9.8058575E-1,4.0979412E1,2.1146606E2,5.509311E-1,1.4561386E-1,2.08525E2,2.241243E2,7.332382E-2,-1.4605255E-1,2.8451538E-2,2.1949405E2,2.4285114E1,3.682324E-1,2.2618543E-1,-4.4690706E-2],"split_indices":[3,3,3,0,4,3,0,3,0,3,0,0,0,0,0,0,4,0,0,1,3,0,0,3,4,0,0,0,3,0,0,0,0],"split_type":[0,0,0,0,0,0,0,0,0,0,0,0,0,0,0,0,0,0,0,0,0,0,0,0,0,0,0,0,0,0,0,0,0],"sum_hessian":[8.8E1,3.6E1,5.2E1,7E0,2.9E1,4.3E1,9E0,2.7E1,2E0,2.1E1,2.2E1,2E1,7E0,1E0,1E0,2E0,1.9E1,3E0,4E0,5E0,1.4E1,4E0,1E0,3E0,1.1E1,1E0,2E0,1E0,1E1,4E0,6E0,3E0,1E0],"tree_param":{"num_deleted":"0","num_feature":"5","num_nodes":"33","size_leaf_vector":"1"}},{"base_weights":[-7.367991E-1,-2.7829956E1,1.8764187E1,-1.9198014E0,-2.0257378E1,1.1116789E1,3.6104137E1,-1.0640398E0,1.332016E-1,5.1003747E0,1.6080948E1,1.3633013E0,2.5931203E0,4.5713148E-1,3.5183964E0,5.61879E-1,9.022951E-1,-1.4028511E0,4.7619805E0,7.149086E-2,-1.4118399E-1,2.7740097E-2,5.066345E0,2.9522324E-1,2.712085E0,-4.357338E-2,3.82584E0,5.2405167E-2,2.2011922E-1],"categories":[],"categories_nodes":[],"categories_segments":[],"categories_sizes":[],"default_left":[0,0,0,0,0,0,0,0,0,0,0,0,0,0,0,0,0,0,0,0,0,0,0,0,0,0,0,0,0],"id":10,"left_children":[1,3,5,-1,7,9,11,-1,-1,13,15,-1,-1,-1,17,-1,-1,19,21,-1,-1,-1,23,-1,25,-1,27,-1,-1],"loss_changes":[5.1771504E4,2.502707E3,7.1571523E3,0E0,6.6660547E2,1.1425049E3,9.5356445E2,0E0,0E0,9.572778E1,6.5820312E0,0E0,0E0,0E0,1.0460014E2,0E0,0E0,2.013629E1,1.3835876E1,0E0,0E0,0E0,7.664398E0,0E0,2.3290096E1,0E0,1.7917976E0,0E0,0E0],"parents":[2147483647,0,0,1,1,2,2,4,4,5,5,6,6,9,9,10,10,14,14,17,17,18,18,22,22,24,24,26,26],"right_children":[2,4,6,-1,8,10,12,-1,-1,14,16,-1,-1,-1,18,-1,-1,20,22,-1,-1,-1,24,-1,26,-1,28,-1,-1],"split_conditions":[1.958116E2,1.5136739E2,2.5297057E2,-1.9198014E0,2.6053625E2,2.266791E2,2.900627E2,-1.0640398E0,1.332016E-1,2.0892096E1,2.3915518E2,1.3633013E0,2.5931203E0,4.5713148E-1,2.1146606E2,5.61879E-1,9.022951E-1,2.08525E2,2.1529696E1,7.149086E-2,-1.4118399E-1,2.7740097E-2,4.133414E1,2.9522324E-1,4.2738293E1,-4.357338E-2,4.3097076E1,5.2405167E-2,2.2011922E-1],"split_indices":[3,3,3,0,4,3,3,0,0,0,3,0,0,0,3,0,0,3,0,0,0,0,1,0,1,0,1,0,0],"split_type":[0,0,0,0,0,0,0,0,0,0,0,0,0,0,0,0,0,0,0,0,0,0,0,0,0,0,0,0,0],"sum_hessian":[9.6E1,4E1,5.6E1,1.5E1,2.5E1,4E1,1.6E1,2.4E1,1E0,1.9E1,2.1E1,1.2E1,4E0,4E0,1.5E1,8E0,1.3E1,3E0,1.2E1,1E0,2E0,1E0,1.1E1,7E0,4E0,1E0,3E0,1E0,2E0],"tree_param":{"num_deleted":"0","num_feature":"5","num_nodes":"29","size_leaf_vector":"1"}},{"base_weights":[-1.2603353E0,-2.3279139E1,1.9885462E1,-3.5523773E1,-1.5156385E1,1.478444E1,2.6989355E0,-2.2389362E0,-1.358237E0,-1.8952614E1,-6.8762984E0,7.2915726E0,1.0654365E0,-1.1977522E1,-2.1787085E1,-7.842743E0,6.9703676E-2,4.8636923E0,4.8593304E-1,-7.9222625E-1,-3.2442078E-1,-1.2836171E0,-1.0436203E1,-3.370743E-2,-8.564348E0,2.6823974E-1,2.395012E0,-6.2038994E-1,-6.37455E-2,-5.1674896E-1,-5.0808473E0,-4.2483903E-2,1.8799005E-1,1.2987176E-1,-3.8248882E-1],"categories":[],"categories_nodes":[],"categories_segments":[],"categories_sizes":[],"default_left":[0,0,0,0,0,0,0,0,0,0,0,0,0,0,0,0,0,0,0,0,0,0,0,0,0,0,0,0,0,0,0,0,0,0,0],"id":11,"left_children":[1,3,5,7,9,11,-1,-1,-1,13,15,17,-1,19,21,23,-1,25,-1,-1,-1,-1,27,-1,29,-1,31,-1,-1,-1,33,-1,-1,-1,-1],"loss_changes":[4.4695406E4,4.136215E3,7.7235625E3,1.761211E2,8.1266943E2,1.9955938E3,0E0,0E0,0E0,1.3445898E2,9.885486E1,8.237036E1,0E0,6.700525E1,3.0539307E2,4.595526E1,0E0,3.2330627E0,0E0,0E0,0E0,0E0,7.449304E1,0E0,3.0015259E0,0E0,2.090789E1,0E0,0E0,0E0,1.1849461E2,0E0,0E0,0E0,0E0],"parents":[2147483647,0,0,1,1,2,2,3,3,4,4,5,5,9,9,10,10,11,11,13,13,14,14,15,15,17,17,22,22,24,24,26,26,30,30],"right_children":[2,4,6,8,10,12,-1,-1,-1,14,16,18,-1,20,22,24,-1,26,-1,-1,-1,-1,28,-1,30,-1,32,-1,-1,-1,34,-1,-1,-1,-1],"split_conditions":[2.1146606E2,1.558429E2,2.8942224E2,1.26030304E2,2.1287666E2,2.3915518E2,2.6989355E0,-2.2389362E0,-1.358237E0,2.3359499E1,4.3093113E1,2.2651262E2,1.0654365E0,1.6197475E2,2.8746479E1,3.553767E1,6.9703676E-2,2.6482155E1,4.8593304E-1,-7.9222625E-1,-3.2442078E-1,-1.2836171E0,1.9415695E2,-3.370743E-2,2.4739835E2,2.6823974E-1,2.7404213E1,-6.2038994E-1,-6.37455E-2,-5.1674896E-1,1.7733754E2,-4.2483903E-2,1.8799005E-1,1.2987176E-1,-3.8248882E-1],"split_indices":[3,3,3,3,4,3,0,0,0,0,1,3,0,3,0,1,0,0,0,0,0,0,3,0,4,0,0,0,0,0,3,0,0,0,0],"split_type":[0,0,0,0,0,0,0,0,0,0,0,0,0,0,0,0,0,0,0,0,0,0,0,0,0,0,0,0,0,0,0,0,0,0,0],"sum_hessian":[9.4E1,4.6E1,4.8E1,1.7E1,2.9E1,4.3E1,5E0,6E0,1.1E1,1.9E1,1E1,2.1E1,2.2E1,7E0,1.2E1,9E0,1E0,1.2E1,9E0,3E0,4E0,8E0,4E0,1E0,8E0,9E0,3E0,3E0,1E0,4E0,4E0,1E0,2E0,1E0,3E0],"tree_param":{"num_deleted":"0","num_feature":"5","num_nodes":"35","size_leaf_vector":"1"}},{"base_weights":[-1.6179745E0,-2.5244308E1,1.958099E1,-3.706967E1,-1.9470953E1,1.2161421E1,4.3432144E1,-1.9894236E0,-7.372093E-1,-2.0443975E1,-7.792053E0,2.543126E0,1.832365E1,1.3693318E0,2.8604712E0,-1.0658576E0,-9.875626E0,-6.0388696E-1,1.2662506E-1,5.699388E0,-2.3291233E0,6.286316E-1,1.0276343E0,-1.3985062E-1,-5.651413E-1,9.081245E0,2.9527E0,-5.0740175E0,1.5110372E-1,5.1890665E-1,1.2976456E-1,3.921466E0,3.538564E-1,-4.0449068E-1,-2.297615E0,2.034073E-2,2.3492126E-1,6.796112E-2,-4.142189E-2,-3.286476E-2,-1.312645E-1],"categories":[],"categories_nodes":[],"categories_segments":[],"categories_sizes":[],"default_left":[0,0,0,0,0,0,0,0,0,0,0,0,0,0,0,0,0,0,0,0,0,0,0,0,0,0,0,0,0,0,0,0,0,0,0,0,0,0,0,0,0],"id":12,"left_children":[1,3,5,7,9,11,13,-1,-1,15,17,19,21,-1,-1,-1,23,-1,-1,25,27,-1,-1,-1,-1,29,31,33,-1,-1,-1,35,37,-1,39,-1,-1,-1,-1,-1,-1],"loss_changes":[4.5571152E4,2.213918E3,7.9661367E3,2.0242969E2,1.9297852E2,2.205666E3,8.649238E2,0E0,0E0,4.7864258E1,2.0757806E2,2.5932416E2,3.6440918E1,0E0,0E0,0E0,8.796234E0,0E0,0E0,6.607486E1,1.1815335E2,0E0,0E0,0E0,0E0,6.7119446E0,1.6236065E1,2.327803E1,0E0,0E0,0E0,1.1742317E1,4.6919465E0,0E0,4.2437553E-1,0E0,0E0,0E0,0E0,0E0,0E0],"parents":[2147483647,0,0,1,1,2,2,3,3,4,4,5,5,6,6,9,9,10,10,11,11,12,12,16,16,19,19,20,20,25,25,26,26,27,27,31,31,32,32,34,34],"right_children":[2,4,6,8,10,12,14,-1,-1,16,18,20,22,-1,-1,-1,24,-1,-1,26,28,-1,-1,-1,-1,30,32,34,-1,-1,-1,36,38,-1,40,-1,-1,-1,-1,-1,-1],"split_conditions":[1.958116E2,1.4834207E2,2.6929166E2,2.1362724E1,2.612901E2,2.2651262E2,3.0573572E2,-1.9894236E0,-7.372093E-1,1.887174E2,2.2677622E1,2.4931372E2,2.4484819E2,1.3693318E0,2.8604712E0,-1.0658576E0,1.9152576E1,-6.0388696E-1,1.2662506E-1,1.9868297E2,2.1146606E2,6.286316E-1,1.0276343E0,-1.3985062E-1,-5.651413E-1,3.9974735E1,4.133414E1,1.7219866E1,1.5110372E-1,5.1890665E-1,1.2976456E-1,2.1529696E1,2.4875067E1,-4.0449068E-1,2.3584888E1,2.034073E-2,2.3492126E-1,6.796112E-2,-4.142189E-2,-3.286476E-2,-1.312645E-1],"split_indices":[3,3,3,0,4,3,3,0,0,3,0,4,3,0,0,0,0,0,0,4,3,0,0,0,0,1,1,0,0,0,0,0,0,0,0,0,0,0,0,0,0],"split_type":[0,0,0,0,0,0,0,0,0,0,0,0,0,0,0,0,0,0,0,0,0,0,0,0,0,0,0,0,0,0,0,0,0,0,0,0,0,0,0,0,0],"sum_hessian":[8.9E1,4.2E1,4.7E1,1.2E1,3E1,3.7E1,1E1,1E1,2E0,2.7E1,3E0,1.5E1,2.2E1,6E0,4E0,2.4E1,3E0,2E0,1E0,9E0,6E0,8E0,1.4E1,1E0,2E0,3E0,6E0,4E0,2E0,2E0,1E0,4E0,2E0,1E0,3E0,1E0,3E0,1E0,1E0,1E0,2E0],"tree_param":{"num_deleted":"0","num_feature":"5","num_nodes":"41","size_leaf_vector":"1"}},{"base_weights":[1.1549728E0,-2.0449697E1,1.95849E1,-2.0822306E0,-1.6349165E1,1.3028144E1,3.8169487E1,-1.8275814E1,-3.6699498E0,6.8242917E0,9.2731524E-1,1.336214E0,2.4423962E0,-9.943663E-1,-1.212686E1,4.5625305E-1,-5.8471146E0,2.7972522E0,4.2338762E-1,-2.8019547E-1,-1.6224438E1,-3.2043077E-2,6.626206E-2,-3.514384E-1,-5.7553865E-2,4.0805845E0,-2.7405295E-1,-8.903765E-1,-2.4730186E-1,4.061165E-2,2.3473072E-1,1.983223E-2,-4.03862E-2],"categories":[],"categories_nodes":[],"categories_segments":[],"categories_sizes":[],"default_left":[0,0,0,0,0,0,0,0,0,0,0,0,0,0,0,0,0,0,0,0,0,0,0,0,0,0,0,0,0,0,0,0,0],"id":13,"left_children":[1,3,5,-1,7,9,11,13,15,17,-1,-1,-1,-1,19,21,23,25,-1,-1,27,-1,-1,-1,-1,29,31,-1,-1,-1,-1,-1,-1],"loss_changes":[3.5439688E4,2.8824727E3,5.35174E3,0E0,8.1235156E2,1.1400869E3,1.6117773E2,6.601172E1,5.656829E1,1.02060974E2,0E0,0E0,0E0,0E0,1.4963452E2,3.7094343E0,1.4105713E1,2.8708836E1,0E0,0E0,1.1968994E0,0E0,0E0,0E0,0E0,6.221199E0,1.394175E0,0E0,0E0,0E0,0E0,0E0,0E0],"parents":[2147483647,0,0,1,1,2,2,4,4,5,5,6,6,7,7,8,8,9,9,14,14,15,15,16,16,17,17,20,20,25,25,26,26],"right_children":[2,4,6,-1,8,10,12,14,16,18,-1,-1,-1,-1,20,22,24,26,-1,-1,28,-1,-1,-1,-1,30,32,-1,-1,-1,-1,-1,-1],"split_conditions":[2.1146606E2,1.26030304E2,2.6012665E2,-2.0822306E0,1.958116E2,2.3915518E2,3.0573572E2,1.8565115E2,2.08525E2,2.1982526E2,9.2731524E-1,1.336214E0,2.4423962E0,-9.943663E-1,2.3359499E1,2.3584888E1,2.3645588E1,2.1879303E2,4.2338762E-1,-2.8019547E-1,2.783264E1,-3.2043077E-2,6.626206E-2,-3.514384E-1,-5.7553865E-2,2.1717444E2,2.1529696E1,-8.903765E-1,-2.4730186E-1,4.061165E-2,2.3473072E-1,1.983223E-2,-4.03862E-2],"split_indices":[3,3,3,0,3,3,3,3,3,3,0,0,0,0,0,0,0,3,0,0,0,0,0,0,0,3,0,0,0,0,0,0,0],"split_type":[0,0,0,0,0,0,0,0,0,0,0,0,0,0,0,0,0,0,0,0,0,0,0,0,0,0,0,0,0,0,0,0,0],"sum_hessian":[8.7E1,4E1,4.7E1,5E0,3.5E1,3.6E1,1.1E1,3E1,5E0,1.8E1,1.8E1,7E0,4E0,2.2E1,8E0,2E0,3E0,6E0,1.2E1,4E0,4E0,1E0,1E0,2E0,1E0,4E0,2E0,3E0,1E0,1E0,3E0,1E0,1E0],"tree_param":{"num_deleted":"0","num_feature":"5","num_nodes":"33","size_leaf_vector":"1"}},{"base_weights":[2.7820477E0,-2.0777706E1,1.7877926E1,-1.6583923E0,-1.2332504E1,1.2533693E1,3.8601265E1,-7.36151E0,-1.627579E1,6.0202847E0,8.6562294E-1,1.2601594E0,2.4819162E0,-4.1328335E-1,6.460533E-2,-1.911243E1,-5.824402E0,3.43712E0,3.8356158E-1,-1.0147943E0,-2.4111938E-1,-3.5088348E-1,-5.611496E-2,1.9336319E-2,3.733083E0,2.2218464E-1,1.7338982E0,-3.937645E-2,2.8368835E0,3.9596178E-2,1.7317009E-1],"categories":[],"categories_nodes":[],"categories_segments":[],"categories_sizes":[],"default_left":[0,0,0,0,0,0,0,0,0,0,0,0,0,0,0,0,0,0,0,0,0,0,0,0,0,0,0,0,0,0,0],"id":14,"left_children":[1,3,5,-1,7,9,11,13,15,17,-1,-1,-1,-1,-1,19,21,23,-1,-1,-1,-1,-1,-1,25,-1,27,-1,29,-1,-1],"loss_changes":[3.2736082E4,3.3578984E3,5.718203E3,0E0,3.3103296E2,1.3275723E3,3.7558594E2,1.0457074E2,2.4444336E2,6.319104E1,0E0,0E0,0E0,0E0,0E0,5.433008E1,1.4567535E1,7.584366E0,0E0,0E0,0E0,0E0,0E0,0E0,5.080841E0,0E0,1.3358518E1,0E0,1.1008644E0,0E0,0E0],"parents":[2147483647,0,0,1,1,2,2,4,4,5,5,6,6,7,7,8,8,9,9,15,15,16,16,17,17,24,24,26,26,28,28],"right_children":[2,4,6,-1,8,10,12,14,16,18,-1,-1,-1,-1,-1,20,22,24,-1,-1,-1,-1,-1,-1,26,-1,28,-1,30,-1,-1],"split_conditions":[2.1146606E2,1.5358536E2,2.6929166E2,-1.6583923E0,2.4875067E1,2.3883786E2,3.0573572E2,2.3645588E1,2.1287666E2,2.1982526E2,8.6562294E-1,1.2601594E0,2.4819162E0,-4.1328335E-1,6.460533E-2,1.9144145E2,2.6591154E1,2.1529696E1,3.8356158E-1,-1.0147943E0,-2.4111938E-1,-3.5088348E-1,-5.611496E-2,1.9336319E-2,2.6011461E1,2.2218464E-1,4.2738293E1,-3.937645E-2,2.620632E1,3.9596178E-2,1.7317009E-1],"split_indices":[3,3,3,0,0,3,3,0,4,3,0,0,0,0,0,3,0,0,0,0,0,0,0,0,0,0,1,0,0,0,0],"split_type":[0,0,0,0,0,0,0,0,0,0,0,0,0,0,0,0,0,0,0,0,0,0,0,0,0,0,0,0,0,0,0],"sum_hessian":[9E1,3.5E1,5.5E1,1.3E1,2.2E1,4.5E1,1E1,1.1E1,1.1E1,2E1,2.5E1,6E0,4E0,1E1,1E0,8E0,3E0,9E0,1.1E1,7E0,1E0,2E0,1E0,1E0,8E0,5E0,3E0,1E0,2E0,1E0,1E0],"tree_param":{"num_deleted":"0","num_feature":"5","num_nodes":"31","size_leaf_vector":"1"}},{"base_weights":[-1.4314814E0,-2.2305838E1,1.5054674E1,-3.598162E1,-1.6091997E1,1.0883659E1,1.8317398E0,-1.9716341E0,-6.2421036E-1,-1.8255074E1,-9.016476E0,4.922602E0,8.185758E-1,-1.0214192E0,-1.0679642E1,-1.0925237E1,-3.8992157E0,-3.7526017E-1,5.828648E0,-7.209053E-1,-8.8898724E-1,-2.5606155E-1,-7.5110835E-1,-3.581276E-2,-2.3607254E-1,8.374677E0,3.4218068E0,1.5865059E-1,-2.2532463E-1,8.793651E0,1.1509781E-1,-1.1224874E-1,4.6562195E0,1.202076E-1,4.6459094E-1,5.9446716E-1,5.4927793E0,8.2976915E-2,-3.8391877E-2,2.9931727E-1,3.8606264E-2],"categories":[],"categories_nodes":[],"categories_segments":[],"categories_sizes":[],"default_left":[0,0,0,0,0,0,0,0,0,0,0,0,0,0,0,0,0,0,0,0,0,0,0,0,0,0,0,0,0,0,0,0,0,0,0,0,0,0,0,0,0],"id":15,"left_children":[1,3,5,7,9,11,-1,-1,-1,13,15,17,-1,-1,19,21,23,-1,25,-1,27,-1,-1,-1,-1,29,31,-1,-1,33,-1,-1,35,-1,-1,37,39,-1,-1,-1,-1],"loss_changes":[3.1996492E4,2.905129E3,4.2818516E3,4.8080566E2,2.945498E2,1.3915137E3,0E0,0E0,0E0,1.4403516E2,4.5308777E1,3.0272882E2,0E0,0E0,2.4339655E2,6.5739624E1,7.086796E0,0E0,1.0615698E2,0E0,5.8382065E1,0E0,0E0,0E0,0E0,5.2005615E0,1.0139E2,0E0,0E0,6.3084106E0,0E0,0E0,3.4111618E1,0E0,0E0,5.62711E0,1.6347382E1,0E0,0E0,0E0,0E0],"parents":[2147483647,0,0,1,1,2,2,3,3,4,4,5,5,9,9,10,10,11,11,14,14,15,15,16,16,18,18,20,20,25,25,26,26,29,29,32,32,35,35,36,36],"right_children":[2,4,6,8,10,12,-1,-1,-1,14,16,18,-1,-1,20,22,24,-1,26,-1,28,-1,-1,-1,-1,30,32,-1,-1,34,-1,-1,36,-1,-1,38,40,-1,-1,-1,-1],"split_conditions":[1.958116E2,1.433E2,2.6929166E2,2.1362724E1,1.8565115E2,2.3915518E2,1.8317398E0,-1.9716341E0,-6.2421036E-1,2.2078752E2,4.351549E1,1.7219866E1,8.185758E-1,-1.0214192E0,1.7087177E2,2.3359499E1,4.5522343E1,-3.7526017E-1,2.4509995E2,-7.209053E-1,2.3476982E1,-2.5606155E-1,-7.5110835E-1,-3.581276E-2,-2.3607254E-1,4.5865864E1,2.1146606E2,1.5865059E-1,-2.2532463E-1,1.7499007E2,1.1509781E-1,-1.1224874E-1,2.4834288E2,1.202076E-1,4.6459094E-1,2.1775108E1,2.8844446E2,8.2976915E-2,-3.8391877E-2,2.9931727E-1,3.8606264E-2],"split_indices":[3,3,3,0,3,3,0,0,0,4,1,0,0,0,3,0,1,0,4,0,0,0,0,0,0,1,3,0,0,4,0,0,4,0,0,0,4,0,0,0,0],"split_type":[0,0,0,0,0,0,0,0,0,0,0,0,0,0,0,0,0,0,0,0,0,0,0,0,0,0,0,0,0,0,0,0,0,0,0,0,0,0,0,0,0],"sum_hessian":[9.1E1,4E1,5.1E1,1.1E1,2.9E1,4.4E1,7E0,9E0,2E0,2.1E1,8E0,2.2E1,2.2E1,1.5E1,6E0,5E0,3E0,1E0,2.1E1,4E0,2E0,3E0,2E0,1E0,2E0,9E0,1.2E1,1E0,1E0,8E0,1E0,2E0,1E1,1E0,7E0,2E0,8E0,1E0,1E0,7E0,1E0],"tree_param":{"num_deleted":"0","num_feature":"5","num_nodes":"41","size_leaf_vector":"1"}},{"base_weights":[-1.2207292E0,-2.2713888E1,1.4708622E1,-1.8474991E0,-1.607274E1,1.01237135E1,2.3322E0,-8.6192316E-1,-7.49588E0,4.5846267E0,1.6235783E1,-2.008442E-1,-5.352966E-1,-3.6587867E-1,5.3854504E0,6.121267E-1,1.0099918E0,9.3028145E0,4.382836E0,1.1720238E-1,5.420527E-1,1.7547607E-2,5.4089303E0,5.934448E-2,-5.7882186E-2,3.1543186E0,3.175981E-1,7.238388E-3,3.6317825E0,2.115904E-1,1.6211548E0,1.5901871E-1,-3.74321E-2],"categories":[],"categories_nodes":[],"categories_segments":[],"categories_sizes":[],"default_left":[0,0,0,0,0,0,0,0,0,0,0,0,0,0,0,0,0,0,0,0,0,0,0,0,0,0,0,0,0,0,0,0,0],"id":16,"left_children":[1,3,5,-1,7,9,-1,-1,11,13,15,-1,-1,-1,17,-1,-1,19,21,-1,-1,23,25,-1,-1,27,-1,-1,29,-1,31,-1,-1],"loss_changes":[2.977809E4,2.9042383E3,6.848829E3,0E0,1.4073438E2,1.4490532E3,0E0,0E0,1.283432E1,2.7769757E2,8.512158E1,0E0,0E0,0E0,5.348993E1,0E0,0E0,1.740503E1,9.39682E1,0E0,0E0,8.244999E0,1.6108795E1,0E0,0E0,9.532898E0,0E0,0E0,3.7815094E-1,0E0,1.3466061E1,0E0,0E0],"parents":[2147483647,0,0,1,1,2,2,4,4,5,5,8,8,9,9,10,10,14,14,17,17,18,18,21,21,22,22,25,25,28,28,30,30],"right_children":[2,4,6,-1,8,10,-1,-1,12,14,16,-1,-1,-1,18,-1,-1,20,22,-1,-1,24,26,-1,-1,28,-1,-1,30,-1,32,-1,-1],"split_conditions":[1.9144145E2,1.433E2,3.025E2,-1.8474991E0,1.8457289E2,2.3883786E2,2.3322E0,-8.6192316E-1,2.2677622E1,1.7219866E1,2.5297057E2,-2.008442E-1,-5.352966E-1,-3.6587867E-1,1.9227821E2,6.121267E-1,1.0099918E0,1.7499007E2,2.1717444E2,1.1720238E-1,5.420527E-1,2.620632E1,2.1982526E2,5.934448E-2,-5.7882186E-2,2.1529696E1,3.175981E-1,7.238388E-3,2.1879303E2,2.115904E-1,2.2895834E1,1.5901871E-1,-3.74321E-2],"split_indices":[3,3,3,0,3,3,0,0,0,0,3,0,0,0,4,0,0,4,3,0,0,0,3,0,0,0,0,0,3,0,0,0,0],"split_type":[0,0,0,0,0,0,0,0,0,0,0,0,0,0,0,0,0,0,0,0,0,0,0,0,0,0,0,0,0,0,0,0,0],"sum_hessian":[8.5E1,3.6E1,4.9E1,1E1,2.6E1,4.4E1,5E0,2.2E1,4E0,2.4E1,2E1,3E0,1E0,1E0,2.3E1,1.2E1,8E0,3E0,2E1,1E0,2E0,4E0,1.6E1,2E0,2E0,6E0,1E1,1E0,5E0,3E0,2E0,1E0,1E0],"tree_param":{"num_deleted":"0","num_feature":"5","num_nodes":"33","size_leaf_vector":"1"}},{"base_weights":[1.3352754E0,-2.0145084E1,1.6180614E1,-1.5444548E0,-1.5419706E1,1.1511915E1,2.2274566E0,-1.6692244E1,3.2467142E-1,4.9927993E0,8.906976E-1,-1.7663374E1,-3.6828206E0,-1.5188217E-1,1.7623253E-1,-3.567318E-1,5.8302803E0,-1.0792689E1,-9.7267294E-1,-3.3470538E-2,-2.4274102E-1,3.27962E0,3.9475423E-1,-6.355345E-1,-1.9992295E-1,5.292336E-1,1.6532815E0,-1.129055E0,2.8377895E0,4.9892046E-2,-1.08531706E-1,2.080278E-1,4.7488403E-1,7.6927185E-2,-3.925171E-1,7.0575713E-3,-3.6496352E-2],"categories":[],"categories_nodes":[],"categories_segments":[],"categories_sizes":[],"default_left":[0,0,0,0,0,0,0,0,0,0,0,0,0,0,0,0,0,0,0,0,0,0,0,0,0,0,0,0,0,0,0,0,0,0,0,0,0],"id":17,"left_children":[1,3,5,-1,7,9,-1,11,13,15,-1,17,19,-1,-1,-1,21,23,-1,-1,-1,25,-1,-1,-1,-1,27,29,31,-1,-1,-1,33,-1,35,-1,-1],"loss_changes":[2.80688E4,1.3514014E3,6.374246E3,0E0,5.4637256E2,1.8009092E3,0E0,2.5079541E2,4.2984646E1,2.8535297E2,0E0,7.292432E1,7.3452797E0,0E0,0E0,0E0,9.523926E1,4.039618E1,0E0,0E0,0E0,1.2506639E2,0E0,0E0,0E0,0E0,3.945672E1,1.10272665E1,2.3028801E1,0E0,0E0,0E0,4.294383E0,0E0,6.4322555E-1,0E0,0E0],"parents":[2147483647,0,0,1,1,2,2,4,4,5,5,7,7,8,8,9,9,11,11,12,12,16,16,17,17,21,21,26,26,27,27,28,28,32,32,34,34],"right_children":[2,4,6,-1,8,10,-1,12,14,16,-1,18,20,-1,-1,-1,22,24,-1,-1,-1,26,-1,-1,-1,-1,28,30,32,-1,-1,-1,34,-1,36,-1,-1],"split_conditions":[1.958116E2,1.4631662E2,3.025E2,-1.5444548E0,2.612901E2,2.4066553E2,2.2274566E0,2.9441025E1,2.2677622E1,1.7219866E1,8.906976E-1,2.0793459E1,3.037753E1,-1.5188217E-1,1.7623253E-1,-3.567318E-1,2.1982526E2,1.740165E2,-9.7267294E-1,-3.3470538E-2,-2.4274102E-1,1.7937168E1,3.9475423E-1,-6.355345E-1,-1.9992295E-1,5.292336E-1,2.1146606E2,2.08525E2,2.1879303E2,4.9892046E-2,-1.08531706E-1,2.080278E-1,3.8219162E1,7.6927185E-2,2.1529696E1,7.0575713E-3,-3.6496352E-2],"split_indices":[3,3,3,0,4,3,0,0,0,0,0,0,0,0,0,0,3,3,0,0,0,0,0,0,0,0,3,3,3,0,0,0,1,0,0,0,0],"split_type":[0,0,0,0,0,0,0,0,0,0,0,0,0,0,0,0,0,0,0,0,0,0,0,0,0,0,0,0,0,0,0,0,0,0,0,0,0],"sum_hessian":[8.6E1,3.5E1,5.1E1,9E0,2.6E1,4.5E1,6E0,2.4E1,2E0,2.3E1,2.2E1,2.2E1,2E0,1E0,1E0,1E0,2.2E1,6E0,1.6E1,1E0,1E0,1.1E1,1.1E1,4E0,2E0,1E0,1E1,3E0,7E0,1E0,2E0,4E0,3E0,1E0,2E0,1E0,1E0],"tree_param":{"num_deleted":"0","num_feature":"5","num_nodes":"37","size_leaf_vector":"1"}},{"base_weights":[-4.8707125E-1,-1.985743E1,1.4244143E1,-1.7103264E0,-1.5513874E1,9.251949E0,3.1102654E1,-1.735792E1,-8.042503E0,4.225019E0,1.278381E1,1.0225161E0,1.9897693E0,-8.982188E-1,-3.5623017E-1,-1.1142509E1,-3.9539979E0,6.41877E0,1.3180711E0,4.576853E-1,7.436033E-1,-1.0233116E-1,-6.746132E-1,-2.3080806E-1,-3.263359E-2,5.1600266E-1,4.838621E0,-1.7820549E0,3.1651433E0,1.48379E0,2.7925873E-1,-2.0834733E-2,-1.04913846E-1,1.9597836E-1,5.5209856E-2,1.0440331E-1,6.880951E-3],"categories":[],"categories_nodes":[],"categories_segments":[],"categories_sizes":[],"default_left":[0,0,0,0,0,0,0,0,0,0,0,0,0,0,0,0,0,0,0,0,0,0,0,0,0,0,0,0,0,0,0,0,0,0,0,0,0],"id":18,"left_children":[1,3,5,-1,7,9,11,13,15,17,19,-1,-1,-1,-1,21,23,25,27,-1,-1,-1,-1,-1,-1,-1,29,31,33,35,-1,-1,-1,-1,-1,-1,-1],"loss_changes":[2.5108205E4,1.8377178E3,3.920287E3,0E0,2.8750244E2,6.561653E2,2.0474805E2,2.0956055E1,5.7337646E1,1.0632776E2,3.8218994E1,0E0,0E0,0E0,0E0,5.7878784E1,7.917244E0,1.1711243E1,5.7175873E1,0E0,0E0,0E0,0E0,0E0,0E0,0E0,1.4253815E1,8.526869E-1,5.000984E0,2.1530194E0,0E0,0E0,0E0,0E0,0E0,0E0,0E0],"parents":[2147483647,0,0,1,1,2,2,4,4,5,5,6,6,7,7,8,8,9,9,10,10,15,15,16,16,17,17,18,18,26,26,27,27,28,28,29,29],"right_children":[2,4,6,-1,8,10,12,14,16,18,20,-1,-1,-1,-1,22,24,26,28,-1,-1,-1,-1,-1,-1,-1,30,32,34,36,-1,-1,-1,-1,-1,-1,-1],"split_conditions":[1.958116E2,1.26030304E2,2.6929166E2,-1.7103264E0,1.8565115E2,2.3030986E2,3.0573572E2,2.8746479E1,1.8145193E2,2.4931372E2,2.4522565E2,1.0225161E0,1.9897693E0,-8.982188E-1,-3.5623017E-1,2.2673138E1,2.3359499E1,1.7937168E1,2.1146606E2,4.576853E-1,7.436033E-1,-1.0233116E-1,-6.746132E-1,-2.3080806E-1,-3.263359E-2,5.1600266E-1,2.1529696E1,2.3584888E1,2.8844446E2,2.0892096E1,2.7925873E-1,-2.0834733E-2,-1.04913846E-1,1.9597836E-1,5.5209856E-2,1.0440331E-1,6.880951E-3],"split_indices":[3,3,3,0,3,3,3,0,4,4,3,0,0,0,0,0,0,0,3,0,0,0,0,0,0,0,0,0,4,0,0,0,0,0,0,0,0],"split_type":[0,0,0,0,0,0,0,0,0,0,0,0,0,0,0,0,0,0,0,0,0,0,0,0,0,0,0,0,0,0,0,0,0,0,0,0,0],"sum_hessian":[8.6E1,3.7E1,4.9E1,7E0,3E1,3.9E1,1E1,2.3E1,7E0,1.7E1,2.2E1,6E0,4E0,2.1E1,2E0,3E0,4E0,9E0,8E0,1E1,1.2E1,1E0,2E0,3E0,1E0,1E0,8E0,3E0,5E0,2E0,6E0,1E0,2E0,3E0,2E0,1E0,1E0],"tree_param":{"num_deleted":"0","num_feature":"5","num_nodes":"37","size_leaf_vector":"1"}},{"base_weights":[-1.0480413E0,-1.678815E1,1.548544E1,-1.5968856E0,-1.1838629E1,1.1996898E1,1.9101782E0,-1.4046259E1,-5.9457426E0,6.803905E0,8.853036E-1,-9.977303E-2,-1.4483447E1,-9.822283E0,6.7056274E-1,2.2208836E0,4.048647E-1,-7.8885335E-1,-8.188683E0,-5.255282E-1,-1.4231491E-1,3.145935E0,-1.0141653E-1,3.0767555E0,3.3942667E-1,-6.521263E-1,-2.5011292E0,1.9428216E-1,4.166298E-2,2.9576873E-2,1.8539912E-1,6.802254E-2,-4.2565536E-2,-1.455302E-1,-3.1817626E-2],"categories":[],"categories_nodes":[],"categories_segments":[],"categories_sizes":[],"default_left":[0,0,0,0,0,0,0,0,0,0,0,0,0,0,0,0,0,0,0,0,0,0,0,0,0,0,0,0,0,0,0,0,0,0,0],"id":19,"left_children":[1,3,5,-1,7,9,-1,11,13,15,-1,-1,17,19,21,23,-1,-1,25,-1,-1,27,-1,29,31,-1,33,-1,-1,-1,-1,-1,-1,-1,-1],"loss_changes":[2.1859793E4,2.8461729E3,2.7910537E3,0E0,3.5880127E2,9.764946E2,0E0,9.754248E1,2.887186E2,1.0649713E2,0E0,0E0,5.809619E1,3.6938477E0,3.9784824E1,8.617384E0,0E0,0E0,1.3301794E2,0E0,0E0,1.8943653E0,0E0,4.0815353E0,4.805481E0,0E0,1.2021427E0,0E0,0E0,0E0,0E0,0E0,0E0,0E0,0E0],"parents":[2147483647,0,0,1,1,2,2,4,4,5,5,7,7,8,8,9,9,12,12,13,13,14,14,15,15,18,18,21,21,23,23,24,24,26,26],"right_children":[2,4,6,-1,8,10,-1,12,14,16,-1,-1,18,20,22,24,-1,-1,26,-1,-1,28,-1,30,32,-1,34,-1,-1,-1,-1,-1,-1,-1,-1],"split_conditions":[2.1146606E2,1.433E2,3.025E2,-1.5968856E0,2.2078752E2,2.4484819E2,1.9101782E0,1.5211479E2,2.2677622E1,2.1949405E2,8.853036E-1,-9.977303E-2,1.8734938E2,2.0936249E1,2.08525E2,2.1879303E2,4.048647E-1,-7.8885335E-1,1.8145193E2,-5.255282E-1,-1.4231491E-1,2.3476982E1,-1.0141653E-1,2.1717444E2,2.1775108E1,-6.521263E-1,2.3359499E1,1.9428216E-1,4.166298E-2,2.9576873E-2,1.8539912E-1,6.802254E-2,-4.2565536E-2,-1.455302E-1,-3.1817626E-2],"split_indices":[3,3,3,0,4,3,0,4,0,3,0,0,3,0,3,3,0,0,4,0,0,0,0,3,0,0,0,0,0,0,0,0,0,0,0],"split_type":[0,0,0,0,0,0,0,0,0,0,0,0,0,0,0,0,0,0,0,0,0,0,0,0,0,0,0,0,0,0,0,0,0,0,0],"sum_hessian":[8.2E1,4.2E1,4E1,9E0,3.3E1,3.6E1,4E0,2.3E1,1E1,2E1,1.6E1,1E0,2.2E1,6E0,4E0,5E0,1.5E1,1.7E1,5E0,5E0,1E0,2E0,2E0,3E0,2E0,2E0,3E0,1E0,1E0,1E0,2E0,1E0,1E0,2E0,1E0],"tree_param":{"num_deleted":"0","num_feature":"5","num_nodes":"35","size_leaf_vector":"1"}},{"base_weights":[2.4736958E0,-1.7735023E1,1.4186521E1,-2.5609642E1,-1.0187563E1,1.0580048E1,2.093802E0,-1.6721772E0,-9.17417E-1,-5.32978E0,-1.5593569E1,5.8035035E0,8.1977457E-1,-6.620459E0,1.8942527E-1,-1.9815484E-1,-8.344454E-1,-3.491847E-2,6.3109894E0,-4.6649763E-1,-2.0631985E-1,4.2676506E0,3.7245283E-1,5.0674057E-1,2.8129258E0,3.1304932E0,4.61291E-2,4.0621568E-2,1.6593485E-1],"categories":[],"categories_nodes":[],"categories_segments":[],"categories_sizes":[],"default_left":[0,0,0,0,0,0,0,0,0,0,0,0,0,0,0,0,0,0,0,0,0,0,0,0,0,0,0,0,0],"id":20,"left_children":[1,3,5,7,9,11,-1,-1,-1,13,15,17,-1,19,-1,-1,-1,-1,21,-1,-1,23,-1,-1,25,27,-1,-1,-1],"loss_changes":[2.06079E4,1.6409688E3,5.049332E3,2.3962988E2,3.8959155E2,1.2937339E3,0E0,0E0,0E0,1.5453824E2,3.577466E1,1.0009601E2,0E0,2.9077362E1,0E0,0E0,0E0,0E0,3.0997437E1,0E0,0E0,7.3912766E1,0E0,0E0,3.715294E0,1.2302017E0,0E0,0E0,0E0],"parents":[2147483647,0,0,1,1,2,2,3,3,4,4,5,5,9,9,10,10,11,11,13,13,18,18,21,21,24,24,25,25],"right_children":[2,4,6,8,10,12,-1,-1,-1,14,16,18,-1,20,-1,-1,-1,-1,22,-1,-1,24,-1,-1,26,28,-1,-1,-1],"split_conditions":[1.887174E2,1.558429E2,3.0573572E2,1.3244444E2,2.3476982E1,2.468799E2,2.093802E0,-1.6721772E0,-9.17417E-1,2.3387638E1,3.6286575E1,1.9601666E2,8.1977457E-1,1.6197475E2,1.8942527E-1,-1.9815484E-1,-8.344454E-1,-3.491847E-2,2.2651262E2,-4.6649763E-1,-2.0631985E-1,1.7937168E1,3.7245283E-1,5.0674057E-1,2.7058057E2,2.08525E2,4.61291E-2,4.0621568E-2,1.6593485E-1],"split_indices":[3,3,3,3,0,3,0,0,0,0,1,3,0,3,0,0,0,0,3,0,0,0,0,0,4,3,0,0,0],"split_type":[0,0,0,0,0,0,0,0,0,0,0,0,0,0,0,0,0,0,0,0,0,0,0,0,0,0,0,0,0],"sum_hessian":[8.5E1,3.1E1,5.4E1,1.4E1,1.7E1,4.9E1,5E0,5E0,9E0,1E1,7E0,2.8E1,2.1E1,9E0,1E0,1E0,6E0,2E0,2.6E1,3E0,6E0,1.1E1,1.5E1,1E0,1E1,8E0,2E0,1E0,7E0],"tree_param":{"num_deleted":"0","num_feature":"5","num_nodes":"29","size_leaf_vector":"1"}},{"base_weights":[1.8919836E0,-1.49506645E1,1.3087223E1,-2.1050209E1,-1.0515504E1,1.0199681E1,1.7965691E0,-1.1873009E0,-5.454695E-1,-5.1992974E0,-1.4613887E1,5.4550195E0,1.5105716E1,-6.3435597E0,1.8468972E-1,-1.609004E1,-2.1650162E-1,-3.4682313E-1,6.170869E0,3.6431026E-1,7.9204106E-1,-4.0063617E-1,-1.8085684E-1,-8.875002E-1,-5.746801E0,4.381056E0,3.880678E-1,-3.014946E-2,-4.008606E-1,4.9407196E-1,3.282354E0,2.0380147E-1,1.544782E0,-4.564972E-2,2.2189362E0,4.486033E-2,1.4005102E-1],"categories":[],"categories_nodes":[],"categories_segments":[],"categories_sizes":[],"default_left":[0,0,0,0,0,0,0,0,0,0,0,0,0,0,0,0,0,0,0,0,0,0,0,0,0,0,0,0,0,0,0,0,0,0,0,0,0],"id":21,"left_children":[1,3,5,7,9,11,-1,-1,-1,13,15,17,19,21,-1,23,-1,-1,25,-1,-1,-1,-1,-1,27,29,-1,-1,-1,-1,31,-1,33,-1,35,-1,-1],"loss_changes":[1.7920064E4,8.066406E2,3.3934287E3,1.5101074E2,4.469265E2,1.1280264E3,0E0,0E0,0E0,1.4554419E2,1.2767651E2,2.9117633E2,2.8285156E1,2.1076172E1,0E0,8.6857666E1,0E0,0E0,4.2857178E1,0E0,0E0,0E0,0E0,0E0,3.0201408E1,5.8214844E1,0E0,0E0,0E0,0E0,1.3010391E1,0E0,1.1967399E1,0E0,1.3336964E0,0E0,0E0],"parents":[2147483647,0,0,1,1,2,2,3,3,4,4,5,5,9,9,10,10,11,11,12,12,13,13,15,15,18,18,24,24,25,25,30,30,32,32,34,34],"right_children":[2,4,6,8,10,12,-1,-1,-1,14,16,18,20,22,-1,24,-1,-1,26,-1,-1,-1,-1,-1,28,30,-1,-1,-1,-1,32,-1,34,-1,36,-1,-1],"split_conditions":[1.958116E2,1.558429E2,3.025E2,2.1618301E1,2.3476982E1,2.468799E2,1.7965691E0,-1.1873009E0,-5.454695E-1,2.3387638E1,2.1287666E2,1.7219866E1,3.312434E1,1.740165E2,1.8468972E-1,2.8746479E1,-2.1650162E-1,-3.4682313E-1,2.3030986E2,3.6431026E-1,7.9204106E-1,-4.0063617E-1,-1.8085684E-1,-8.875002E-1,3.037753E1,1.7937168E1,3.880678E-1,-3.014946E-2,-4.008606E-1,4.9407196E-1,4.133414E1,2.0380147E-1,4.2738293E1,-4.564972E-2,4.4531994E1,4.486033E-2,1.4005102E-1],"split_indices":[3,3,3,0,0,3,0,0,0,0,4,0,1,3,0,0,0,0,3,0,0,0,0,0,0,0,0,0,0,0,1,0,1,0,1,0,0],"split_type":[0,0,0,0,0,0,0,0,0,0,0,0,0,0,0,0,0,0,0,0,0,0,0,0,0,0,0,0,0,0,0,0,0,0,0,0,0],"sum_hessian":[9.3E1,3.7E1,5.6E1,1.4E1,2.3E1,5.1E1,5E0,1E1,4E0,1.1E1,1.2E1,2.7E1,2.4E1,1E1,1E0,1E1,2E0,1E0,2.6E1,3E0,2.1E1,5E0,5E0,8E0,2E0,1.4E1,1.2E1,1E0,1E0,1E0,1.3E1,8E0,5E0,1E0,4E0,2E0,2E0],"tree_param":{"num_deleted":"0","num_feature":"5","num_nodes":"37","size_leaf_vector":"1"}},{"base_weights":[8.8249826E-1,-1.8755127E1,1.0321309E1,-1.5516617E0,-7.176998E-1,4.9239655E0,2.1778824E1,1.6576805E0,4.0515023E-1,7.785556E-1,1.6781555E0,-3.381527E-1,2.4568272E0,4.8172036E-1,1.522828E0,-1.2029063E0,2.6637187E0,-1.6488647E-1,-1.0929819E-1,3.0340564E0,-4.4508364E-2,-3.6648814E-2,3.8484573E-2,1.6066436E-1,2.6562883E-2],"categories":[],"categories_nodes":[],"categories_segments":[],"categories_sizes":[],"default_left":[0,0,0,0,0,0,0,0,0,0,0,0,0,0,0,0,0,0,0,0,0,0,0,0,0],"id":22,"left_children":[1,3,5,-1,-1,7,9,11,-1,-1,-1,-1,13,-1,15,17,19,21,-1,23,-1,-1,-1,-1,-1],"loss_changes":[1.48366875E4,9.595254E2,3.2321294E3,0E0,0E0,3.811463E2,7.2099316E2,1.512037E2,0E0,0E0,0E0,0E0,1.1270169E2,0E0,5.9179966E1,5.762165E0,1.9810608E1,2.6878624E0,0E0,3.6758652E0,0E0,0E0,0E0,0E0,0E0],"parents":[2147483647,0,0,1,1,2,2,5,5,6,6,7,7,12,12,14,14,15,15,16,16,17,17,19,19],"right_children":[2,4,6,-1,-1,8,10,12,-1,-1,-1,-1,14,-1,16,18,20,22,-1,24,-1,-1,-1,-1,-1],"split_conditions":[1.887174E2,1.3244444E2,2.5223875E2,-1.5516617E0,-7.176998E-1,2.266791E2,2.900627E2,1.7219866E1,4.0515023E-1,7.785556E-1,1.6781555E0,-3.381527E-1,1.7937168E1,4.8172036E-1,2.1146606E2,2.08525E2,2.6482155E1,1.9601666E2,-1.0929819E-1,2.7058057E2,-4.4508364E-2,-3.6648814E-2,3.8484573E-2,1.6066436E-1,2.6562883E-2],"split_indices":[3,3,3,0,0,3,3,0,0,0,0,0,0,0,3,3,0,3,0,4,0,0,0,0,0],"split_type":[0,0,0,0,0,0,0,0,0,0,0,0,0,0,0,0,0,0,0,0,0,0,0,0,0],"sum_hessian":[7.8E1,2.5E1,5.3E1,5E0,2E1,3.7E1,1.6E1,1.9E1,1.8E1,1.2E1,4E0,1E0,1.8E1,1E0,1.7E1,5E0,1.2E1,3E0,2E0,1.1E1,1E0,2E0,1E0,1E1,1E0],"tree_param":{"num_deleted":"0","num_feature":"5","num_nodes":"25","size_leaf_vector":"1"}},{"base_weights":[-6.958201E-1,-1.7105862E1,1.0678359E1,-2.503319E1,-1.2099149E1,7.7323E0,1.425635E0,-1.3286916E0,-1.6363716E-1,-8.030356E0,-1.617769E1,2.8672729E0,1.0231405E1,-5.6840974E-1,-3.0684903E0,-8.451228E-1,-2.2325058E-1,4.6967736E-1,1.8722839E0,3.6271784E-1,5.906542E-1,-3.8845446E-2,-1.6604678E-1,-7.981491E-1,3.1586761E0,-1.8085226E0,1.5916824E-1,3.3336608E0,3.522072E-2,-2.4661256E-2,-1.1097794E-1,4.2280834E-2,-4.7504425E-2,1.8487273E-1,1.2523245E0,-4.3395616E-2,1.3731995E-1],"categories":[],"categories_nodes":[],"categories_segments":[],"categories_sizes":[],"default_left":[0,0,0,0,0,0,0,0,0,0,0,0,0,0,0,0,0,0,0,0,0,0,0,0,0,0,0,0,0,0,0,0,0,0,0,0,0],"id":23,"left_children":[1,3,5,7,9,11,-1,-1,-1,13,15,17,19,-1,21,-1,-1,-1,23,-1,-1,-1,-1,25,27,29,31,33,-1,-1,-1,-1,-1,-1,35,-1,-1],"loss_changes":[1.6421277E4,1.1259541E3,2.5116646E3,3.4885742E2,2.6836133E2,5.299414E2,0E0,0E0,0E0,1.9698358E2,1.7908691E1,9.28033E1,5.5565918E1,0E0,1.469429E0,0E0,0E0,0E0,5.7484684E1,0E0,0E0,0E0,0E0,6.0913477E0,2.375763E0,5.271616E-1,3.849201E0,2.9413528E0,0E0,0E0,0E0,0E0,0E0,0E0,1.1887008E1,0E0,0E0],"parents":[2147483647,0,0,1,1,2,2,3,3,4,4,5,5,9,9,10,10,11,11,12,12,14,14,18,18,23,23,24,24,25,25,26,26,27,27,34,34],"right_children":[2,4,6,8,10,12,-1,-1,-1,14,16,18,20,-1,22,-1,-1,-1,24,-1,-1,-1,-1,26,28,30,32,34,-1,-1,-1,-1,-1,-1,36,-1,-1],"split_conditions":[1.9415695E2,1.4631662E2,2.6929166E2,2.1362724E1,2.3359499E1,2.2728052E2,1.425635E0,-1.3286916E0,-1.6363716E-1,1.740165E2,2.9441025E1,1.7937168E1,2.468799E2,-5.6840974E-1,1.7700851E2,-8.451228E-1,-2.2325058E-1,4.6967736E-1,2.1717444E2,3.6271784E-1,5.906542E-1,-3.8845446E-2,-1.6604678E-1,2.3645588E1,2.7000995E2,2.3584888E1,2.620632E1,4.133414E1,3.522072E-2,-2.4661256E-2,-1.1097794E-1,4.2280834E-2,-4.7504425E-2,1.8487273E-1,2.7404213E1,-4.3395616E-2,1.3731995E-1],"split_indices":[3,3,3,0,0,3,0,0,0,3,0,0,3,0,3,0,0,0,3,0,0,0,0,0,4,0,0,1,0,0,0,0,0,0,0,0,0],"split_type":[0,0,0,0,0,0,0,0,0,0,0,0,0,0,0,0,0,0,0,0,0,0,0,0,0,0,0,0,0,0,0,0,0,0,0,0,0],"sum_hessian":[8.6E1,3.5E1,5.1E1,1.2E1,2.3E1,4.5E1,6E0,1.1E1,1E0,1.3E1,1E1,1.6E1,2.9E1,7E0,6E0,9E0,1E0,1E0,1.5E1,1.2E1,1.7E1,1E0,5E0,5E0,1E1,2E0,3E0,9E0,1E0,1E0,1E0,2E0,1E0,7E0,2E0,1E0,1E0],"tree_param":{"num_deleted":"0","num_feature":"5","num_nodes":"37","size_leaf_vector":"1"}},{"base_weights":[4.7212727E-2,-1.4918874E1,1.0776723E1,-2.3456097E1,-1.1032147E1,8.593391E0,1.7687095E0,-1.2581761E0,-1.5954629E-1,-1.2464399E1,-5.893467E0,3.3799992E0,1.195632E1,-6.55056E-2,-1.2956609E1,-9.39726E0,-4.0359497E-2,6.7408395E0,1.9084339E0,4.3890834E-1,7.2746307E-1,-7.945315E0,-1.4536783E1,-5.79331E-1,-2.03774E-1,-1.4878592E-1,2.1914291E-1,7.378998E-2,7.4986877E0,-1.1367981E0,3.0182445E0,-5.077318E-1,-8.073375E-2,-1.5388183E-1,-7.5907576E-1,4.2890167E-1,7.953262E-2,3.6465455E-2,-1.7856522E0,-2.1294404E-2,1.6850322E-1,-2.40448E-2,-1.0301361E-1],"categories":[],"categories_nodes":[],"categories_segments":[],"categories_sizes":[],"default_left":[0,0,0,0,0,0,0,0,0,0,0,0,0,0,0,0,0,0,0,0,0,0,0,0,0,0,0,0,0,0,0,0,0,0,0,0,0,0,0,0,0,0,0],"id":24,"left_children":[1,3,5,7,9,11,-1,-1,-1,13,15,17,19,-1,21,23,25,27,29,-1,-1,31,33,-1,-1,-1,-1,-1,35,37,39,-1,-1,-1,-1,-1,-1,-1,41,-1,-1,-1,-1],"loss_changes":[1.4612866E4,1.00213965E3,2.542351E3,3.0031836E2,1.3261841E2,8.362007E2,0E0,0E0,0E0,9.832031E1,1.6368533E2,9.099516E1,1.19506836E2,0E0,4.2875244E1,1.1035431E1,6.497707E1,1.2874023E1,5.7505222E1,0E0,0E0,8.1508484E1,5.6709473E1,0E0,0E0,0E0,0E0,0E0,1.823941E1,7.3564487E0,1.5975838E1,0E0,0E0,0E0,0E0,0E0,0E0,0E0,4.4247246E-1,0E0,0E0,0E0,0E0],"parents":[2147483647,0,0,1,1,2,2,3,3,4,4,5,5,9,9,10,10,11,11,12,12,14,14,15,15,16,16,17,17,18,18,21,21,22,22,28,28,29,29,30,30,38,38],"right_children":[2,4,6,8,10,12,-1,-1,-1,14,16,18,20,-1,22,24,26,28,30,-1,-1,32,34,-1,-1,-1,-1,-1,36,38,40,-1,-1,-1,-1,-1,-1,-1,42,-1,-1,-1,-1],"split_conditions":[1.958116E2,1.4631662E2,3.0573572E2,2.1362724E1,2.2078752E2,2.3574223E2,1.7687095E0,-1.2581761E0,-1.5954629E-1,1.5211479E2,1.7087177E2,2.1114493E2,2.5297057E2,-6.55056E-2,2.2014616E1,3.2739178E1,3.9475925E1,1.7499007E2,2.1146606E2,4.3890834E-1,7.2746307E-1,1.6197475E2,1.7839914E2,-5.79331E-1,-2.03774E-1,-1.4878592E-1,2.1914291E-1,7.378998E-2,4.5865864E1,2.3163838E2,2.241243E2,-5.077318E-1,-8.073375E-2,-1.5388183E-1,-7.5907576E-1,4.2890167E-1,7.953262E-2,3.6465455E-2,2.3584888E1,-2.1294404E-2,1.6850322E-1,-2.40448E-2,-1.0301361E-1],"split_indices":[3,3,3,0,4,3,0,0,0,4,3,4,3,0,0,1,1,4,3,0,0,3,4,0,0,0,0,0,1,4,4,0,0,0,0,0,0,0,0,0,0,0,0],"split_type":[0,0,0,0,0,0,0,0,0,0,0,0,0,0,0,0,0,0,0,0,0,0,0,0,0,0,0,0,0,0,0,0,0,0,0,0,0,0,0,0,0,0,0],"sum_hessian":[8.9E1,3.7E1,5.2E1,1E1,2.7E1,4.9E1,3E0,9E0,1E0,2E1,7E0,2E1,2.9E1,1E0,1.9E1,4E0,3E0,5E0,1.5E1,1.5E1,1.4E1,6E0,1.3E1,2E0,2E0,2E0,1E0,1E0,4E0,4E0,1.1E1,4E0,2E0,1E0,1.2E1,3E0,1E0,1E0,3E0,1E0,1E1,1E0,2E0],"tree_param":{"num_deleted":"0","num_feature":"5","num_nodes":"43","size_leaf_vector":"1"}},{"base_weights":[5.073269E-1,-1.1865542E1,1.2264268E1,-9.703358E-1,-7.348544E0,8.760644E0,1.7869116E0,-1.5965334E0,-1.146025E1,4.6447167E0,6.013473E-1,4.472126E-1,-3.3679006E0,-1.3422935E1,-1.3535671E-1,3.0026474E0,2.9765794E-1,-6.453784E0,-6.825692E-1,-7.356307E-1,-2.324847E-1,1.622295E-1,2.0629121E-2,-3.627575E-1,-8.120804E-2,-1.1103796E-1,2.1366425E-1],"categories":[],"categories_nodes":[],"categories_segments":[],"categories_sizes":[],"default_left":[0,0,0,0,0,0,0,0,0,0,0,0,0,0,0,0,0,0,0,0,0,0,0,0,0,0,0],"id":25,"left_children":[1,3,5,-1,7,9,-1,11,13,15,-1,-1,17,19,-1,21,-1,23,25,-1,-1,-1,-1,-1,-1,-1,-1],"loss_changes":[1.1637423E4,1.1858643E3,3.0589111E3,0E0,5.966183E2,4.4156128E2,0E0,2.5418256E2,2.2135608E2,2.0798706E1,0E0,0E0,8.674765E1,6.736694E1,0E0,4.927803E0,0E0,7.5679626E0,6.2851242E1,0E0,0E0,0E0,0E0,0E0,0E0,0E0,0E0],"parents":[2147483647,0,0,1,1,2,2,4,4,5,5,7,7,8,8,9,9,12,12,13,13,15,15,17,17,18,18],"right_children":[2,4,6,-1,8,10,-1,12,14,16,-1,-1,18,20,-1,22,-1,24,26,-1,-1,-1,-1,-1,-1,-1,-1],"split_conditions":[2.1146606E2,1.558429E2,2.900627E2,-9.703358E-1,2.3645588E1,2.4484819E2,1.7869116E0,2.7318123E1,2.1287666E2,2.266791E2,6.013473E-1,4.472126E-1,2.0370111E1,2.9441025E1,-1.3535671E-1,2.7058057E2,2.9765794E-1,4.3093113E1,2.5363647E2,-7.356307E-1,-2.324847E-1,1.622295E-1,2.0629121E-2,-3.627575E-1,-8.120804E-2,-1.1103796E-1,2.1366425E-1],"split_indices":[3,3,3,0,0,3,0,1,4,3,0,0,0,0,0,4,0,1,4,0,0,0,0,0,0,0,0],"split_type":[0,0,0,0,0,0,0,0,0,0,0,0,0,0,0,0,0,0,0,0,0,0,0,0,0,0,0],"sum_hessian":[7.8E1,3.8E1,4E1,1.3E1,2.5E1,3.6E1,4E0,1.1E1,1.4E1,1.7E1,1.9E1,1E0,1E1,1.1E1,3E0,9E0,8E0,4E0,6E0,9E0,2E0,8E0,1E0,3E0,1E0,5E0,1E0],"tree_param":{"num_deleted":"0","num_feature":"5","num_nodes":"27","size_leaf_vector":"1"}},{"base_weights":[-1.3372684E0,-1.3856112E1,8.546444E0,-1.0330987E0,-1.1872333E1,4.350561E0,1.7207623E1,-1.2792939E1,-6.888406E0,-1.8056679E-1,5.577425E0,6.568754E-1,1.2558033E0,-1.3129921E-1,-6.553573E-1,-1.0203743E-1,-5.006981E-1,-8.7758385E-2,6.368281E-1,1.5971403E-1,3.1436527E-1,1.3838463E0,-5.7147217E-1,7.8847505E-2,2.0113373E-2,-2.502823E-3,-4.035759E-2],"categories":[],"categories_nodes":[],"categories_segments":[],"categories_sizes":[],"default_left":[0,0,0,0,0,0,0,0,0,0,0,0,0,0,0,0,0,0,0,0,0,0,0,0,0,0,0],"id":26,"left_children":[1,3,5,-1,7,9,11,13,15,17,19,-1,-1,-1,-1,-1,-1,-1,21,-1,-1,23,25,-1,-1,-1,-1],"loss_changes":[1.038823E4,2.5424268E2,1.6331775E3,0E0,5.4112793E1,1.8445667E2,1.528623E2,4.5443604E1,8.562543E1,1.1414306E1,2.3902039E1,0E0,0E0,0E0,0E0,0E0,0E0,0E0,6.206563E0,0E0,0E0,1.23830795E-1,3.2825804E-1,0E0,0E0,0E0,0E0],"parents":[2147483647,0,0,1,1,2,2,4,4,5,5,6,6,7,7,8,8,9,9,10,10,18,18,21,21,22,22],"right_children":[2,4,6,-1,8,10,12,14,16,18,20,-1,-1,-1,-1,-1,-1,-1,22,-1,-1,24,26,-1,-1,-1,-1],"split_conditions":[1.9415695E2,1.26030304E2,2.5297057E2,-1.0330987E0,1.8565115E2,2.1717444E2,3.0573572E2,1.260321E2,2.3359499E1,2.3645588E1,2.266791E2,6.568754E-1,1.2558033E0,-1.3129921E-1,-6.553573E-1,-1.0203743E-1,-5.006981E-1,-8.7758385E-2,2.620632E1,1.5971403E-1,3.1436527E-1,2.4875067E1,3.037753E1,7.8847505E-2,2.0113373E-2,-2.502823E-3,-4.035759E-2],"split_indices":[3,3,3,0,3,3,3,3,0,0,3,0,0,0,0,0,0,0,0,0,0,0,0,0,0,0,0],"split_type":[0,0,0,0,0,0,0,0,0,0,0,0,0,0,0,0,0,0,0,0,0,0,0,0,0,0,0],"sum_hessian":[8.2E1,3.6E1,4.6E1,6E0,3E1,3.2E1,1.4E1,2.4E1,6E0,7E0,2.5E1,1.1E1,3E0,1E0,2.3E1,3E0,3E0,2E0,5E0,7E0,1.8E1,3E0,2E0,2E0,1E0,1E0,1E0],"tree_param":{"num_deleted":"0","num_feature":"5","num_nodes":"27","size_leaf_vector":"1"}},{"base_weights":[-1.2073123E0,-1.3398419E1,9.385142E0,-1.7921143E1,-9.088989E0,6.6452494E0,1.498762E0,-9.835202E-1,-3.4405652E-1,-4.4438457E0,-1.142594E1,4.1621714E0,1.0264923E1,-1.5510833E0,-3.2239196E-1,-1.37014675E1,-4.589694E0,6.7456055E0,3.0498612E0,3.6105838E-1,6.2030166E-1,-8.859463E-2,-1.6696168E-2,-1.278389E-1,-7.3278403E-1,-1.8987656E0,-3.8383523E-1,3.6322987E-1,9.079132E-2,1.2433945E0,2.2074218E-1,-1.24957524E-1,-2.440262E-3,-1.0065842E-1,1.8289201E0,-2.8810501E-2,2.2015877E0,2.4040396E0,1.9610597E-2,3.6178973E-2,2.5635197E0,3.6966708E-2,1.3902451E-1],"categories":[],"categories_nodes":[],"categories_segments":[],"categories_sizes":[],"default_left":[0,0,0,0,0,0,0,0,0,0,0,0,0,0,0,0,0,0,0,0,0,0,0,0,0,0,0,0,0,0,0,0,0,0,0,0,0,0,0,0,0,0,0],"id":27,"left_children":[1,3,5,7,9,11,-1,-1,-1,13,15,17,19,21,-1,23,25,27,29,-1,-1,-1,-1,-1,-1,31,-1,-1,-1,33,-1,-1,-1,-1,35,-1,37,39,-1,-1,41,-1,-1],"loss_changes":[1.0843847E4,5.9723975E2,2.3394668E3,2.1225879E2,1.8804517E2,3.2578076E2,0E0,0E0,0E0,4.217256E1,1.5489929E2,5.4139923E1,1.4686157E1,7.521229E-1,0E0,6.88728E1,2.6958359E1,4.7183533E0,4.3826523E1,0E0,0E0,0E0,0E0,0E0,0E0,4.3207827E0,0E0,0E0,0E0,2.2749937E1,0E0,0E0,0E0,0E0,9.335402E0,0E0,1.9875984E0,2.1091461E-2,0E0,0E0,3.1905746E-1,0E0,0E0],"parents":[2147483647,0,0,1,1,2,2,3,3,4,4,5,5,9,9,10,10,11,11,12,12,13,13,15,15,16,16,17,17,18,18,25,25,29,29,34,34,36,36,37,37,40,40],"right_children":[2,4,6,8,10,12,-1,-1,-1,14,16,18,20,22,-1,24,26,28,30,-1,-1,-1,-1,-1,-1,32,-1,-1,-1,34,-1,-1,-1,-1,36,-1,38,40,-1,-1,42,-1,-1],"split_conditions":[1.958116E2,1.5136739E2,3.0573572E2,2.1362724E1,2.3387638E1,2.468799E2,1.498762E0,-9.835202E-1,-3.4405652E-1,1.857096E2,1.9247412E2,2.1247478E1,2.5297057E2,1.8262875E2,-3.2239196E-1,1.6195688E2,4.5522343E1,2.5411104E2,2.1982526E2,3.6105838E-1,6.2030166E-1,-8.859463E-2,-1.6696168E-2,-1.278389E-1,-7.3278403E-1,2.6591154E1,-3.8383523E-1,3.6322987E-1,9.079132E-2,3.737024E1,2.2074218E-1,-1.24957524E-1,-2.440262E-3,-1.0065842E-1,2.1529696E1,-2.8810501E-2,2.6011461E1,2.1775108E1,1.9610597E-2,3.6178973E-2,2.08525E2,3.6966708E-2,1.3902451E-1],"split_indices":[3,3,3,0,0,3,0,0,0,4,4,0,3,4,0,3,1,4,3,0,0,0,0,0,0,0,0,0,0,1,0,0,0,0,0,0,0,0,0,0,3,0,0],"split_type":[0,0,0,0,0,0,0,0,0,0,0,0,0,0,0,0,0,0,0,0,0,0,0,0,0,0,0,0,0,0,0,0,0,0,0,0,0,0,0,0,0,0,0],"sum_hessian":[8.2E1,3.8E1,4.4E1,1.7E1,2.1E1,4E1,4E0,1.4E1,3E0,8E0,1.3E1,2.5E1,1.5E1,4E0,4E0,9E0,4E0,6E0,1.9E1,8E0,7E0,3E0,1E0,1E0,8E0,3E0,1E0,5E0,1E0,9E0,1E1,2E0,1E0,1E0,8E0,1E0,7E0,6E0,1E0,1E0,5E0,1E0,4E0],"tree_param":{"num_deleted":"0","num_feature":"5","num_nodes":"43","size_leaf_vector":"1"}},{"base_weights":[6.514696E-1,-1.050242E1,9.386845E0,-1.1810831E1,-2.64694E0,6.770294E0,1.6052526E0,-8.228359E-1,-9.189348E0,-2.3354034E-1,1.6084849E0,3.250968E0,1.0301288E1,-4.995453E0,-1.1372655E1,-1.0719376E-1,2.2783013E-1,-3.3184662E-1,3.9395027E0,3.5433415E-1,6.3287264E-1,-4.0353805E-1,-8.0006026E-2,-6.6688323E-1,-4.7751036E0,4.627639E0,1.1038208E0,-2.9725438E-1,-2.3792267E-3,4.2914507E-1,3.9310744E0,1.6432953E0,-3.983879E-2,1.0991242E0,4.661694E0,1.1079407E-1,2.6147207E-2,9.622631E-2,-5.5062104E-2,5.4815676E-2,2.4258113E-1],"categories":[],"categories_nodes":[],"categories_segments":[],"categories_sizes":[],"default_left":[0,0,0,0,0,0,0,0,0,0,0,0,0,0,0,0,0,0,0,0,0,0,0,0,0,0,0,0,0,0,0,0,0,0,0,0,0,0,0,0,0],"id":28,"left_children":[1,3,5,7,9,11,-1,-1,13,-1,15,17,19,21,23,-1,-1,-1,25,-1,-1,-1,-1,-1,27,29,31,-1,-1,-1,33,35,-1,37,39,-1,-1,-1,-1,-1,-1],"loss_changes":[8.867592E3,3.7986523E2,2.81425E3,2.6286328E2,6.779983E1,5.5056665E2,0E0,0E0,1.6294592E2,0E0,4.2955986E1,1.9635031E2,8.4505615E1,9.150273E1,1.3077502E2,0E0,0E0,0E0,4.1723938E1,0E0,0E0,0E0,0E0,0E0,2.7372704E1,1.8606812E1,7.461277E0,0E0,0E0,0E0,3.211966E1,2.048705E0,0E0,1.1200304E1,4.1614075E0,0E0,0E0,0E0,0E0,0E0,0E0],"parents":[2147483647,0,0,1,1,2,2,3,3,4,4,5,5,8,8,10,10,11,11,12,12,13,13,14,14,18,18,24,24,25,25,26,26,30,30,31,31,33,33,34,34],"right_children":[2,4,6,8,10,12,-1,-1,14,-1,16,18,20,22,24,-1,-1,-1,26,-1,-1,-1,-1,-1,28,30,32,-1,-1,-1,34,36,-1,38,40,-1,-1,-1,-1,-1,-1],"split_conditions":[1.958116E2,2.3668448E2,3.0573572E2,1.4834207E2,3.6973713E1,2.4066553E2,1.6052526E0,-8.228359E-1,2.3387638E1,-2.3354034E-1,2.2677622E1,1.7219866E1,2.5297057E2,1.6197475E2,2.9441025E1,-1.0719376E-1,2.2783013E-1,-3.3184662E-1,2.64174E2,3.5433415E-1,6.3287264E-1,-4.0353805E-1,-8.0006026E-2,-6.6688323E-1,1.9415695E2,1.7937168E1,2.9212421E1,-2.9725438E-1,-2.3792267E-3,4.2914507E-1,2.1949405E2,2.4121733E1,-3.983879E-2,2.4601697E2,1.7499007E2,1.1079407E-1,2.6147207E-2,9.622631E-2,-5.5062104E-2,5.4815676E-2,2.4258113E-1],"split_indices":[3,4,3,3,1,3,0,0,0,0,0,0,3,3,0,0,0,0,4,0,0,0,0,0,3,0,0,0,0,0,3,0,0,4,4,0,0,0,0,0,0],"split_type":[0,0,0,0,0,0,0,0,0,0,0,0,0,0,0,0,0,0,0,0,0,0,0,0,0,0,0,0,0,0,0,0,0,0,0,0,0,0,0,0,0],"sum_hessian":[8.9E1,3.9E1,5E1,3.3E1,6E0,4.6E1,4E0,1E1,2.3E1,4E0,2E0,2.4E1,2.2E1,9E0,1.4E1,1E0,1E0,1E0,2.3E1,1.1E1,1.1E1,4E0,5E0,1E1,4E0,1.8E1,5E0,3E0,1E0,1E0,1.7E1,4E0,1E0,4E0,1.3E1,2E0,2E0,3E0,1E0,1E0,1.2E1],"tree_param":{"num_deleted":"0","num_feature":"5","num_nodes":"41","size_leaf_vector":"1"}},{"base_weights":[-1.5705211E0,-1.2726801E1,7.2999372E0,-1.0754213E0,-1.0355949E1,3.932246E0,1.420021E1,-5.595959E-1,-3.1017578E0,-3.2355043E-1,4.4009757E0,5.887422E-1,1.0796819E0,-1.9270001E-1,-2.3197175E-3,2.4046116E0,3.131875E-1,4.184166E-1,1.6083865E0,-8.122635E-2,2.363271E0,2.4765146E0,1.9446565E-2,1.2036972E0,1.3571098E-1,1.03016414E-1,-3.4154892E-2],"categories":[],"categories_nodes":[],"categories_segments":[],"categories_sizes":[],"default_left":[0,0,0,0,0,0,0,0,0,0,0,0,0,0,0,0,0,0,0,0,0,0,0,0,0,0,0],"id":29,"left_children":[1,3,5,-1,7,9,11,-1,13,-1,15,-1,-1,-1,-1,17,-1,-1,19,-1,21,23,-1,25,-1,-1,-1],"loss_changes":[9.395269E3,6.5169727E2,1.1757744E3,0E0,1.7753516E2,2.0890234E2,5.057837E1,0E0,1.1313061E1,0E0,1.18814026E2,0E0,0E0,0E0,0E0,7.676129E1,0E0,0E0,4.7767776E1,0E0,2.3905258E0,9.686661E-1,0E0,7.8725543E0,0E0,0E0,0E0],"parents":[2147483647,0,0,1,1,2,2,4,4,5,5,6,6,8,8,10,10,15,15,18,18,20,20,21,21,23,23],"right_children":[2,4,6,-1,8,10,12,-1,14,-1,16,-1,-1,-1,-1,18,-1,-1,20,-1,22,24,-1,26,-1,-1,-1],"split_conditions":[1.958116E2,1.26030304E2,2.5297057E2,-1.0754213E0,2.9441025E1,1.7219866E1,3.0573572E2,-5.595959E-1,1.9415695E2,-3.2355043E-1,2.3383191E2,5.887422E-1,1.0796819E0,-1.9270001E-1,-2.3197175E-3,1.7937168E1,3.131875E-1,4.184166E-1,2.1146606E2,-8.122635E-2,2.8844446E2,2.1529696E1,1.9446565E-2,2.0399239E1,1.3571098E-1,1.03016414E-1,-3.4154892E-2],"split_indices":[3,3,3,0,0,0,3,0,3,0,3,0,0,0,0,0,0,0,3,0,4,0,0,0,0,0,0],"split_type":[0,0,0,0,0,0,0,0,0,0,0,0,0,0,0,0,0,0,0,0,0,0,0,0,0,0,0],"sum_hessian":[9.3E1,4.1E1,5.2E1,7E0,3.4E1,3.6E1,1.6E1,3E1,4E0,1E0,3.5E1,1.4E1,2E0,3E0,1E0,1.8E1,1.7E1,1E0,1.7E1,3E0,1.4E1,1.3E1,1E0,3E0,1E1,2E0,1E0],"tree_param":{"num_deleted":"0","num_feature":"5","num_nodes":"27","size_leaf_vector":"1"}},{"base_weights":[-1.3447921E-1,-1.1759462E1,8.025763E0,-1.2455676E0,-9.606159E0,5.5030518E0,1.4275815E0,-1.0481584E1,-5.815265E0,3.259441E0,9.930519E0,-5.354333E-1,-1.0875931E-1,-4.66952E-1,-3.4743237E0,-3.1546172E-1,3.7130954E0,5.337693E-1,2.4204254E-1,-1.3011109E0,-2.969119E-1,2.2675853E0,2.4055104E-1,-1.06725566E-1,-3.4006756E-2,4.0795633E-1,1.3894186E0,-2.887726E-4,-2.261734E-3,-8.388138E-1,1.9681503E0,-1.593984E0,3.566742E-2,1.2909584E0,1.2715238E-1,-2.4814224E-2,-9.473457E-2,2.3238068E0,-6.0252886E-2,1.3223617E-1,1.7980576E-2],"categories":[],"categories_nodes":[],"categories_segments":[],"categories_sizes":[],"default_left":[0,0,0,0,0,0,0,0,0,0,0,0,0,0,0,0,0,0,0,0,0,0,0,0,0,0,0,0,0,0,0,0,0,0,0,0,0,0,0,0,0],"id":30,"left_children":[1,3,5,-1,7,9,-1,11,13,15,17,-1,-1,-1,19,-1,21,-1,-1,23,-1,25,-1,-1,27,-1,29,-1,-1,31,33,35,-1,37,-1,-1,-1,39,-1,-1,-1],"loss_changes":[9.201194E3,8.9349805E2,2.7943865E3,0E0,5.8518066E1,4.841748E2,0E0,2.9520996E1,4.17937E1,1.7969824E2,1.277124E1,0E0,0E0,0E0,2.9755959E1,0E0,4.4637726E1,0E0,0E0,5.2074375E0,0E0,7.661739E1,0E0,0E0,6.8968604E-4,0E0,2.2283688E1,0E0,0E0,5.825652E0,1.7781372E0,4.995346E-2,0E0,2.342437E1,0E0,0E0,0E0,2.830986E0,0E0,0E0,0E0],"parents":[2147483647,0,0,1,1,2,2,4,4,5,5,7,7,8,8,9,9,10,10,14,14,16,16,19,19,21,21,24,24,26,26,29,29,30,30,31,31,33,33,37,37],"right_children":[2,4,6,-1,8,10,-1,12,14,16,18,-1,-1,-1,20,-1,22,-1,-1,24,-1,26,-1,-1,28,-1,30,-1,-1,32,34,36,-1,38,-1,-1,-1,40,-1,-1,-1],"split_conditions":[1.958116E2,1.07300255E2,3.0573572E2,-1.2455676E0,4.0378586E1,2.468799E2,1.4275815E0,2.8155025E1,1.8007198E2,1.7219866E1,5.1694363E1,-5.354333E-1,-1.0875931E-1,-4.66952E-1,3.037753E1,-3.1546172E-1,2.266791E2,5.337693E-1,2.4204254E-1,2.0370111E1,-2.969119E-1,1.7937168E1,2.4055104E-1,-1.06725566E-1,2.2014616E1,4.0795633E-1,2.1146606E2,-2.887726E-4,-2.261734E-3,2.3645588E1,2.1982526E2,2.3584888E1,3.566742E-2,2.1879303E2,1.2715238E-1,-2.4814224E-2,-9.473457E-2,2.7058057E2,-6.0252886E-2,1.3223617E-1,1.7980576E-2],"split_indices":[3,3,3,0,1,3,0,0,4,0,1,0,0,0,0,0,3,0,0,0,0,0,0,0,0,0,3,0,0,0,3,0,0,3,0,0,0,4,0,0,0],"split_type":[0,0,0,0,0,0,0,0,0,0,0,0,0,0,0,0,0,0,0,0,0,0,0,0,0,0,0,0,0,0,0,0,0,0,0,0,0,0,0,0,0],"sum_hessian":[9.5E1,3.9E1,5.6E1,4E0,3.5E1,5.1E1,5E0,2.7E1,8E0,3.5E1,1.6E1,2.6E1,1E0,2E0,6E0,1E0,3.4E1,1.3E1,3E0,4E0,2E0,1.6E1,1.8E1,2E0,2E0,1E0,1.5E1,1E0,1E0,3E0,1.2E1,2E0,1E0,7E0,5E0,1E0,1E0,5E0,2E0,4E0,1E0],"tree_param":{"num_deleted":"0","num_feature":"5","num_nodes":"41","size_leaf_vector":"1"}},{"base_weights":[-2.3326496E-2,-1.024545E1,8.563724E0,-8.767018E-1,-8.28676E0,5.866985E0,1.368099E0,-9.215326E0,-3.2560208E0,2.632753E0,8.34906E0,-1.0576663E1,-5.0149503E0,-3.0757523E-1,-1.7481893E0,1.4918473E0,1.6820559E-1,6.353825E0,4.9905396E-1,-3.4835408E0,-5.569982E-1,-7.4918137E0,-2.5278828E0,-3.5198975E-1,-1.1791458E-1,2.2326558E0,3.0450743E-1,7.1117067E0,1.7836487E-1,-2.5083503E-1,-1.0430527E-2,-4.2876077E-1,-1.06040195E-1,-1.640892E-2,-1.451094E-1,-2.4193956E-2,-2.2052766E-3,1.2694687E-1,1.7531205E-2,8.3619945E-2,-5.8244325E-2,3.7266895E-1,1.0091629E-1],"categories":[],"categories_nodes":[],"categories_segments":[],"categories_sizes":[],"default_left":[0,0,0,0,0,0,0,0,0,0,0,0,0,0,0,0,0,0,0,0,0,0,0,0,0,0,0,0,0,0,0,0,0,0,0,0,0,0,0,0,0,0,0],"id":31,"left_children":[1,3,5,-1,7,9,-1,11,13,15,17,19,21,-1,23,25,-1,27,-1,29,-1,31,33,35,-1,37,39,41,-1,-1,-1,-1,-1,-1,-1,-1,-1,-1,-1,-1,-1,-1,-1],"loss_changes":[8.0755273E3,4.5429443E2,2.374167E3,0E0,1.3349268E2,3.3926147E2,0E0,1.1278418E2,1.980732E1,1.2503891E1,1.7988403E1,4.510034E1,3.6502716E1,0E0,4.2808533E0,8.116055E0,0E0,4.196472E0,0E0,1.4016438E1,0E0,5.089493E0,3.987728E0,1.004782E-1,0E0,2.5683765E0,1.1998012E1,2.3592834E0,0E0,0E0,0E0,0E0,0E0,0E0,0E0,0E0,0E0,0E0,0E0,0E0,0E0,0E0,0E0],"parents":[2147483647,0,0,1,1,2,2,4,4,5,5,7,7,8,8,9,9,10,10,11,11,12,12,14,14,15,15,17,17,19,19,21,21,22,22,23,23,25,25,26,26,27,27],"right_children":[2,4,6,-1,8,10,-1,12,14,16,18,20,22,-1,24,26,-1,28,-1,30,-1,32,34,36,-1,38,40,42,-1,-1,-1,-1,-1,-1,-1,-1,-1,-1,-1,-1,-1,-1,-1],"split_conditions":[2.1100977E2,1.26030304E2,3.0573572E2,-8.767018E-1,1.887174E2,2.4066553E2,1.368099E0,2.2078752E2,1.7219866E1,2.1982526E2,2.5297057E2,3.3885838E1,3.2739178E1,-3.0757523E-1,4.5522343E1,2.1879303E2,1.6820559E-1,2.5078726E2,4.9905396E-1,2.2244217E1,-5.569982E-1,2.0936249E1,2.2708568E2,2.3584888E1,-1.1791458E-1,2.7058057E2,3.8219162E1,5.1718193E1,1.7836487E-1,-2.5083503E-1,-1.0430527E-2,-4.2876077E-1,-1.06040195E-1,-1.640892E-2,-1.451094E-1,-2.4193956E-2,-2.2052766E-3,1.2694687E-1,1.7531205E-2,8.3619945E-2,-5.8244325E-2,3.7266895E-1,1.0091629E-1],"split_indices":[3,3,3,0,3,3,0,4,0,3,3,1,1,0,1,3,0,4,0,0,0,0,4,0,0,4,1,1,0,0,0,0,0,0,0,0,0,0,0,0,0,0,0],"split_type":[0,0,0,0,0,0,0,0,0,0,0,0,0,0,0,0,0,0,0,0,0,0,0,0,0,0,0,0,0,0,0,0,0,0,0,0,0,0,0,0,0,0,0],"sum_hessian":[9E1,4.1E1,4.9E1,7E0,3.4E1,4.4E1,5E0,2.8E1,6E0,2E1,2.4E1,2E1,8E0,1E0,5E0,9E0,1.1E1,1.3E1,1.1E1,2E0,1.8E1,3E0,5E0,2E0,3E0,5E0,4E0,9E0,4E0,1E0,1E0,2E0,1E0,1E0,4E0,1E0,1E0,4E0,1E0,2E0,2E0,8E0,1E0],"tree_param":{"num_deleted":"0","num_feature":"5","num_nodes":"43","size_leaf_vector":"1"}},{"base_weights":[1.9741982E-1,-1.0799103E1,7.0901985E0,-1.1606761E0,-8.590885E0,4.835328E0,1.6490057E1,-9.771974E0,-4.35554E0,3.0778794E0,3.845526E-1,5.225246E-1,1.0823718E0,-1.0955682E1,-5.1630554E0,-6.8788934E0,2.9841309E0,3.9836237E-1,2.6631498E0,-1.5659676E-1,-1.1216338E1,-7.5725555E-1,-4.1390458E-1,-8.302032E0,-1.107015E-1,2.3980866E-1,-1.599884E-2,1.3234304E0,2.0977108E-1,-5.857913E-1,-2.406812E-1,-5.280609E-2,-1.5279643E-2,-4.6718237E-1,-1.0338936E-1,-1.588384E0,1.7866812E0,-2.3588944E-2,-9.553986E-2,1.9600089E0,1.9112905E-2,1.4087491E0,1.2301153E-1,1.8554211E0,-5.411568E-2,2.273426E-2,1.3024628E-1],"categories":[],"categories_nodes":[],"categories_segments":[],"categories_sizes":[],"default_left":[0,0,0,0,0,0,0,0,0,0,0,0,0,0,0,0,0,0,0,0,0,0,0,0,0,0,0,0,0,0,0,0,0,0,0,0,0,0,0,0,0,0,0,0,0,0,0],"id":32,"left_children":[1,3,5,-1,7,9,11,13,15,17,-1,-1,-1,19,21,23,25,-1,27,-1,29,31,-1,33,-1,-1,-1,35,-1,-1,-1,-1,-1,-1,-1,37,39,-1,-1,41,-1,43,-1,45,-1,-1,-1],"loss_changes":[7.2772446E3,8.148838E2,1.1707974E3,0E0,1.22514404E2,2.2224841E2,1.1640552E2,7.982568E1,1.8721275E2,4.36705E1,0E0,0E0,0E0,3.61792E0,8.980092E1,2.8090302E1,1.9496212E1,0E0,5.8084885E1,0E0,1.1696777E0,2.1720362E-1,0E0,1.3147736E1,0E0,0E0,0E0,2.7118137E1,0E0,0E0,0E0,0E0,0E0,0E0,0E0,1.785512E-1,3.1455803E0,0E0,0E0,3.946762E-1,0E0,1.2022339E1,0E0,7.2144394E0,0E0,0E0,0E0],"parents":[2147483647,0,0,1,1,2,2,4,4,5,5,6,6,7,7,8,8,9,9,13,13,14,14,15,15,16,16,18,18,20,20,21,21,23,23,27,27,35,35,36,36,39,39,41,41,43,43],"right_children":[2,4,6,-1,8,10,12,14,16,18,-1,-1,-1,20,22,24,26,-1,28,-1,30,32,-1,34,-1,-1,-1,36,-1,-1,-1,-1,-1,-1,-1,38,40,-1,-1,42,-1,44,-1,46,-1,-1,-1],"split_conditions":[1.958116E2,1.07300255E2,2.6929166E2,-1.1606761E0,2.2078752E2,2.4484819E2,3.0573572E2,1.8565115E2,3.6973713E1,1.7937168E1,3.845526E-1,5.225246E-1,1.0823718E0,1.6502207E1,2.3359499E1,3.2739178E1,2.3476982E1,3.9836237E-1,2.266791E2,-1.5659676E-1,2.8746479E1,1.9152576E1,-4.1390458E-1,2.0936249E1,-1.107015E-1,2.3980866E-1,-1.599884E-2,2.1146606E2,2.0977108E-1,-5.857913E-1,-2.406812E-1,-5.280609E-2,-1.5279643E-2,-4.6718237E-1,-1.0338936E-1,2.3584888E1,2.7058057E2,-2.3588944E-2,-9.553986E-2,2.4834288E2,1.9112905E-2,2.4601697E2,1.2301153E-1,2.1775108E1,-5.411568E-2,2.273426E-2,1.3024628E-1],"split_indices":[3,3,3,0,4,3,3,3,1,0,0,0,0,0,0,1,0,0,3,0,0,0,0,0,0,0,0,3,0,0,0,0,0,0,0,0,4,0,0,4,0,4,0,0,0,0,0],"split_type":[0,0,0,0,0,0,0,0,0,0,0,0,0,0,0,0,0,0,0,0,0,0,0,0,0,0,0,0,0,0,0,0,0,0,0,0,0,0,0,0,0,0,0,0,0,0,0],"sum_hessian":[9.4E1,3.6E1,5.8E1,4E0,3.2E1,4.8E1,1E1,2.4E1,8E0,3.1E1,1.7E1,6E0,4E0,1.8E1,6E0,6E0,2E0,1E0,3E1,1E0,1.7E1,3E0,3E0,4E0,2E0,1E0,1E0,1.7E1,1.3E1,1.5E1,2E0,1E0,2E0,3E0,1E0,2E0,1.5E1,1E0,1E0,1.3E1,2E0,8E0,5E0,7E0,1E0,3E0,4E0],"tree_param":{"num_deleted":"0","num_feature":"5","num_nodes":"47","size_leaf_vector":"1"}},{"base_weights":[8.360276E-1,-9.344669E0,8.20563E0,-1.974604E1,-6.2594814E0,5.7949486E0,1.2659961E0,-5.238466E-1,-1.1606059E0,-7.558942E0,-2.9046662E0,3.0891945E0,8.36639E0,-8.201818E0,-9.677429E-1,-5.993219E0,1.5323894E-1,-3.0984497E-1,3.7623682E0,4.5589468E-1,4.7174835E0,-5.2018557E0,-5.4785633E-1,-8.07785E-2,8.197784E-3,-3.340151E-1,-8.112221E-2,2.3381348E-1,-1.6866211E0,4.173444E0,7.663994E-1,5.0818633E-2,2.6272157E-1,-3.8895535E-1,-5.533325E-1,-1.1481985E-1,-2.5731912E-2,3.8840333E-1,3.5754073E0,-3.2367326E-2,7.267151E-2,-5.1485825E-2,-1.768074E-1,4.6346664E-2,1.8355243E-1,-1.4770508E-2,4.4750213E-3],"categories":[],"categories_nodes":[],"categories_segments":[],"categories_sizes":[],"default_left":[0,0,0,0,0,0,0,0,0,0,0,0,0,0,0,0,0,0,0,0,0,0,0,0,0,0,0,0,0,0,0,0,0,0,0,0,0,0,0,0,0,0,0,0,0,0,0],"id":33,"left_children":[1,3,5,7,9,11,-1,-1,-1,13,15,17,19,21,23,25,27,-1,29,-1,31,33,-1,-1,-1,-1,-1,-1,35,37,39,-1,-1,-1,41,-1,-1,-1,43,-1,-1,-1,45,-1,-1,-1,-1],"loss_changes":[6.6040884E3,1.063737E3,1.9573853E3,1.3827881E1,1.0882727E2,2.9420837E2,0E0,0E0,0E0,8.104651E1,9.536341E1,1.733427E2,2.0056274E1,1.00053345E2,2.464317E0,4.177002E0,5.7817554E1,0E0,2.5127563E1,0E0,6.583359E0,1.274801E2,0E0,0E0,0E0,0E0,0E0,0E0,2.3914194E0,1.5220306E1,4.8260202E0,0E0,0E0,0E0,7.147912E-1,0E0,0E0,0E0,1.4099579E0,0E0,0E0,0E0,1.527787E-1,0E0,0E0,0E0,0E0],"parents":[2147483647,0,0,1,1,2,2,3,3,4,4,5,5,9,9,10,10,11,11,12,12,13,13,14,14,15,15,16,16,18,18,20,20,21,21,28,28,29,29,30,30,34,34,38,38,42,42],"right_children":[2,4,6,8,10,12,-1,-1,-1,14,16,18,20,22,24,26,28,-1,30,-1,32,34,-1,-1,-1,-1,-1,-1,36,38,40,-1,-1,-1,42,-1,-1,-1,44,-1,-1,-1,46,-1,-1,-1,-1],"split_conditions":[1.9601666E2,1.3244444E2,3.0573572E2,3.425795E1,2.2078752E2,2.4066553E2,1.2659961E0,-5.238466E-1,-1.1606059E0,2.9441025E1,1.740165E2,1.7219866E1,4.2346287E1,2.3387638E1,2.951805E1,2.4083883E1,1.7733754E2,-3.0984497E-1,4.6031826E1,4.5589468E-1,4.265217E1,1.6197475E2,-5.4785633E-1,-8.07785E-2,8.197784E-3,-3.340151E-1,-8.112221E-2,2.3381348E-1,2.2677622E1,1.7937168E1,2.1100977E2,5.0818633E-2,2.6272157E-1,-3.8895535E-1,1.9152576E1,-1.1481985E-1,-2.5731912E-2,3.8840333E-1,1.7499007E2,-3.2367326E-2,7.267151E-2,-5.1485825E-2,2.3359499E1,4.6346664E-2,1.8355243E-1,-1.4770508E-2,4.4750213E-3],"split_indices":[3,3,3,1,4,3,0,0,0,0,3,0,1,0,0,0,3,0,1,0,1,3,0,0,0,0,0,0,0,0,3,0,0,0,0,0,0,0,4,0,0,0,0,0,0,0,0],"split_type":[0,0,0,0,0,0,0,0,0,0,0,0,0,0,0,0,0,0,0,0,0,0,0,0,0,0,0,0,0,0,0,0,0,0,0,0,0,0,0,0,0,0,0,0,0,0,0],"sum_hessian":[8.6E1,3.6E1,5E1,7E0,2.9E1,4.5E1,5E0,3E0,4E0,2E1,9E0,2.3E1,2.2E1,1.8E1,2E0,4E0,5E0,1E0,2.2E1,1.7E1,5E0,1E1,8E0,1E0,1E0,3E0,1E0,1E0,4E0,1.9E1,3E0,1E0,4E0,6E0,4E0,2E0,2E0,1E0,1.8E1,1E0,2E0,1E0,3E0,1E0,1.7E1,2E0,1E0],"tree_param":{"num_deleted":"0","num_feature":"5","num_nodes":"47","size_leaf_vector":"1"}},{"base_weights":[-3.4365454E-1,-9.388189E0,7.361133E0,-8.576771E-1,-7.2211885E0,4.7710404E0,1.2132465E0,-4.9878693E0,-9.895845E0,2.8457518E0,3.8608876E-1,-4.9913818E-1,-1.5304061E0,-5.206849E-1,-7.909431E-2,1.0727793E0,3.5358043E0,-2.417834E0,2.2796822E-1,1.4936333E0,-5.7351302E-2,1.1286288E-1,4.0935187E0,-3.6970804E0,-5.2240753E-1,1.0301882E-1,-1.3773091E-1,2.819233E-1,1.47602E-1,-1.9893011E-1,-5.0198745E-2,9.2825316E-2,-8.996429E-2,-2.2356033E-2,1.2026215E-2,4.40272E-1,-1.4278158E-2,2.8657151E-2,4.363251E-3],"categories":[],"categories_nodes":[],"categories_segments":[],"categories_sizes":[],"default_left":[0,0,0,0,0,0,0,0,0,0,0,0,0,0,0,0,0,0,0,0,0,0,0,0,0,0,0,0,0,0,0,0,0,0,0,0,0,0,0],"id":34,"left_children":[1,3,5,-1,7,9,-1,11,13,15,-1,-1,17,-1,-1,19,21,23,-1,25,-1,-1,27,29,31,-1,33,-1,-1,-1,-1,35,-1,-1,-1,37,-1,-1,-1],"loss_changes":[6.062123E3,5.4923145E2,1.9420039E3,0E0,1.4776184E2,2.1662842E2,0E0,3.3011557E2,4.380237E1,2.9239853E1,0E0,0E0,8.127881E1,0E0,0E0,1.01211605E1,4.308075E0,2.716523E1,0E0,7.680294E0,0E0,0E0,4.517334E0,1.3127518E0,4.880484E0,0E0,4.586282E-1,0E0,0E0,0E0,0E0,7.8307456E-1,0E0,0E0,0E0,9.0697825E-2,0E0,0E0,0E0],"parents":[2147483647,0,0,1,1,2,2,4,4,5,5,7,7,8,8,9,9,12,12,15,15,16,16,17,17,19,19,22,22,23,23,24,24,26,26,31,31,35,35],"right_children":[2,4,6,-1,8,10,-1,12,14,16,-1,-1,18,-1,-1,20,22,24,-1,26,-1,-1,28,30,32,-1,34,-1,-1,-1,-1,36,-1,-1,-1,38,-1,-1,-1],"split_conditions":[1.9144145E2,1.3244444E2,3.0573572E2,-8.576771E-1,2.3476982E1,2.468799E2,1.2132465E0,1.558429E2,2.3668448E2,2.1902663E2,3.8608876E-1,-4.9913818E-1,2.3387638E1,-5.206849E-1,-7.909431E-2,2.1879303E2,3.7930275E1,2.0793459E1,2.2796822E-1,2.7058057E2,-5.7351302E-2,1.1286288E-1,2.5266304E1,1.862224E2,2.0676341E2,1.0301882E-1,2.3584888E1,2.819233E-1,1.47602E-1,-1.9893011E-1,-5.0198745E-2,1.7700851E2,-8.996429E-2,-2.2356033E-2,1.2026215E-2,2.2014616E1,-1.4278158E-2,2.8657151E-2,4.363251E-3],"split_indices":[3,3,3,0,0,3,0,3,4,3,0,0,0,0,0,3,1,0,0,4,0,0,0,3,4,0,0,0,0,0,0,3,0,0,0,0,0,0,0],"split_type":[0,0,0,0,0,0,0,0,0,0,0,0,0,0,0,0,0,0,0,0,0,0,0,0,0,0,0,0,0,0,0,0,0,0,0,0,0,0,0],"sum_hessian":[8.5E1,3.9E1,4.6E1,7E0,3.2E1,4.1E1,5E0,1.9E1,1.3E1,2.6E1,1.5E1,7E0,1.2E1,1.2E1,1E0,8E0,1.8E1,1.1E1,1E0,7E0,1E0,7E0,1.1E1,6E0,5E0,5E0,2E0,3E0,8E0,5E0,1E0,4E0,1E0,1E0,1E0,2E0,2E0,1E0,1E0],"tree_param":{"num_deleted":"0","num_feature":"5","num_nodes":"39","size_leaf_vector":"1"}},{"base_weights":[-4.134216E-2,-9.553082E0,6.185276E0,-8.409721E-1,-7.219153E0,4.558391E0,1.0771226E0,-5.2447925E0,-8.495522E0,2.5823965E0,7.4920626E0,-7.0854554E0,-5.1450807E-1,-8.856245E0,-7.711678E-2,3.761181E-1,2.180386E0,1.3357697E-1,7.879257E0,-4.236636E-1,-2.0014922E-1,-7.155114E-2,7.237625E-2,-9.797523E0,-3.8183517E0,2.1503155E-1,3.410345E0,4.2420682E-1,1.8205719E-1,2.794075E-2,-1.3802083E-2,-2.4790287E-1,-5.4298913E-1,5.4176333E-3,-2.5816855E-1,-1.1837555E0,9.6824306E-1,4.2740755E0,1.10279016E-1,-4.765396E-1,-1.00315474E-1,1.3688602E0,-5.591736E-2,1.00356676E-1,4.9588885E0,-4.2543795E-2,-6.813558E-2,1.7594604E0,-3.413353E-2,2.6487264E-1,7.318764E-2,1.6687011E-2,-2.179718E-2,9.872665E-2,1.1725617E-2],"categories":[],"categories_nodes":[],"categories_segments":[],"categories_sizes":[],"default_left":[0,0,0,0,0,0,0,0,0,0,0,0,0,0,0,0,0,0,0,0,0,0,0,0,0,0,0,0,0,0,0,0,0,0,0,0,0,0,0,0,0,0,0,0,0,0,0,0,0,0,0,0,0,0,0],"id":35,"left_children":[1,3,5,-1,7,9,-1,11,13,15,17,19,21,23,-1,-1,25,-1,27,-1,-1,-1,29,31,33,35,37,-1,-1,-1,-1,-1,-1,-1,-1,39,41,43,-1,45,-1,47,-1,-1,49,-1,51,53,-1,-1,-1,-1,-1,-1,-1],"loss_changes":[5.3894263E3,4.891079E2,1.2759409E3,0E0,2.8523193E1,2.762954E2,0E0,1.1825049E2,2.6471436E1,4.7147736E1,1.6279907E1,8.860626E0,2.7930121E0,3.372046E1,0E0,0E0,7.4203125E1,0E0,1.5251953E1,0E0,0E0,0E0,8.321921E-1,7.845703E0,2.1685436E1,1.4842735E1,1.0344437E1,0E0,0E0,0E0,0E0,0E0,0E0,0E0,0E0,1.9525309E0,9.054175E0,5.5711517E0,0E0,5.535468E-1,0E0,7.6117573E0,0E0,0E0,5.29129E-1,0E0,5.889314E-1,1.8327713E0,0E0,0E0,0E0,0E0,0E0,0E0,0E0],"parents":[2147483647,0,0,1,1,2,2,4,4,5,5,7,7,8,8,9,9,10,10,11,11,12,12,13,13,16,16,18,18,22,22,23,23,24,24,25,25,26,26,35,35,36,36,37,37,39,39,41,41,44,44,46,46,47,47],"right_children":[2,4,6,-1,8,10,-1,12,14,16,18,20,22,24,-1,-1,26,-1,28,-1,-1,-1,30,32,34,36,38,-1,-1,-1,-1,-1,-1,-1,-1,40,42,44,-1,46,-1,48,-1,-1,50,-1,52,54,-1,-1,-1,-1,-1,-1,-1],"split_conditions":[1.958116E2,1.3244444E2,3.025E2,-8.409721E-1,2.3359499E1,2.468799E2,1.0771226E0,1.740165E2,2.3668448E2,1.7937168E1,3.247974E1,1.5446992E2,2.0793459E1,2.8746479E1,-7.711678E-2,3.761181E-1,2.1982526E2,1.3357697E-1,5.1694363E1,-4.236636E-1,-2.0014922E-1,-7.155114E-2,2.2014616E1,1.70772E2,3.037753E1,2.3645588E1,2.5266304E1,4.2420682E-1,1.8205719E-1,2.794075E-2,-1.3802083E-2,-2.4790287E-1,-5.4298913E-1,5.4176333E-3,-2.5816855E-1,2.3584888E1,2.1879303E2,2.0819382E1,1.10279016E-1,2.1529696E1,-1.00315474E-1,3.049745E1,-5.591736E-2,1.00356676E-1,4.503206E1,-4.2543795E-2,2.1775108E1,2.7058057E2,-3.413353E-2,2.6487264E-1,7.318764E-2,1.6687011E-2,-2.179718E-2,9.872665E-2,1.1725617E-2],"split_indices":[3,3,3,0,0,3,0,3,4,0,1,3,0,0,0,0,3,0,1,0,0,0,0,3,0,0,0,0,0,0,0,0,0,0,0,0,3,0,0,0,0,0,0,0,1,0,0,4,0,0,0,0,0,0,0],"split_type":[0,0,0,0,0,0,0,0,0,0,0,0,0,0,0,0,0,0,0,0,0,0,0,0,0,0,0,0,0,0,0,0,0,0,0,0,0,0,0,0,0,0,0,0,0,0,0,0,0,0,0,0,0,0,0],"sum_hessian":[8.9E1,3.5E1,5.4E1,7E0,2.8E1,5E1,4E0,1.3E1,1.5E1,3.1E1,1.9E1,9E0,4E0,1.4E1,1E0,1E0,3E1,2E0,1.7E1,5E0,4E0,1E0,3E0,1.1E1,3E0,1.2E1,1.8E1,1.4E1,3E0,1E0,2E0,3E0,8E0,1E0,2E0,4E0,8E0,9E0,9E0,3E0,1E0,7E0,1E0,3E0,6E0,1E0,2E0,6E0,1E0,5E0,1E0,1E0,1E0,5E0,1E0],"tree_param":{"num_deleted":"0","num_feature":"5","num_nodes":"55","size_leaf_vector":"1"}},{"base_weights":[-9.509102E-1,-8.572644E0,6.194426E0,-1.4152464E1,-6.6793838E0,3.5492504E0,1.2636083E1,-7.761943E-1,-4.524193E-2,-3.8736892E-1,-4.075779E0,1.3702153E0,4.8329287E0,4.433833E-1,9.449051E-1,-5.998666E0,-1.1531143E0,1.7065185E0,4.235657E-1,1.460546E-1,5.2478094E0,-1.277471E0,-7.63165E0,4.3826294E-1,-1.0291844E-1,4.3932724E-1,1.0934198E-1,-4.3023682E-1,9.5969394E-2,2.7709636E-1,1.06299594E-1,-8.736992E-2,-8.4404E-3,-9.78077E-2,-4.2807427E-1,2.7587509E-2,5.2822116E-3,-4.1480254E-2,1.1388397E0,-5.4519273E-2,1.5327454E-1,1.6269684E-2,6.9143295E-2,1.1432648E-2,6.2942505E-5],"categories":[],"categories_nodes":[],"categories_segments":[],"categories_sizes":[],"default_left":[0,0,0,0,0,0,0,0,0,0,0,0,0,0,0,0,0,0,0,0,0,0,0,0,0,0,0,0,0,0,0,0,0,0,0,0,0,0,0,0,0,0,0,0,0],"id":36,"left_children":[1,3,5,7,9,11,13,-1,-1,-1,15,17,19,-1,-1,21,23,25,27,-1,29,31,33,35,-1,37,-1,39,-1,-1,-1,-1,-1,-1,-1,-1,-1,-1,41,-1,43,-1,-1,-1,-1],"loss_changes":[4.8455693E3,3.597246E2,7.389595E2,1.6763391E2,6.2964966E1,8.848193E1,1.3919067E2,0E0,0E0,0E0,6.052231E1,3.7342339E0,1.3275452E0,0E0,0E0,4.4218216E1,9.545715E0,5.125847E0,7.2114744E0,0E0,2.9088135E0,1.2679982E0,9.638824E0,5.4954767E-2,0E0,4.4953237E0,0E0,1.7079451E0,0E0,0E0,0E0,0E0,0E0,0E0,0E0,0E0,0E0,0E0,1.4553046E-1,0E0,3.408826E-2,0E0,0E0,0E0,0E0],"parents":[2147483647,0,0,1,1,2,2,3,3,4,4,5,5,6,6,10,10,11,11,12,12,15,15,16,16,17,17,18,18,20,20,21,21,22,22,23,23,25,25,27,27,38,38,40,40],"right_children":[2,4,6,8,10,12,14,-1,-1,-1,16,18,20,-1,-1,22,24,26,28,-1,30,32,34,36,-1,38,-1,40,-1,-1,-1,-1,-1,-1,-1,-1,-1,-1,42,-1,44,-1,-1,-1,-1],"split_conditions":[2.1146606E2,1.3244444E2,2.532041E2,2.1362724E1,1.8734938E2,2.2728052E2,3.0573572E2,-7.761943E-1,-4.524193E-2,-3.8736892E-1,4.3571987E1,4.1205784E1,2.0847061E1,4.433833E-1,9.449051E-1,1.8820097E2,4.5522343E1,2.4601697E2,2.9212421E1,1.460546E-1,2.6273737E2,2.2677622E1,3.737024E1,2.4875067E1,-1.0291844E-1,2.1529696E1,1.0934198E-1,2.4834288E2,9.5969394E-2,2.7709636E-1,1.06299594E-1,-8.736992E-2,-8.4404E-3,-9.78077E-2,-4.2807427E-1,2.7587509E-2,5.2822116E-3,-4.1480254E-2,2.1775108E1,-5.4519273E-2,2.620632E1,1.6269684E-2,6.9143295E-2,1.1432648E-2,6.2942505E-5],"split_indices":[3,3,3,0,3,3,3,0,0,0,1,1,0,0,0,3,1,4,0,0,4,0,1,0,0,0,0,4,0,0,0,0,0,0,0,0,0,0,0,0,0,0,0,0,0],"split_type":[0,0,0,0,0,0,0,0,0,0,0,0,0,0,0,0,0,0,0,0,0,0,0,0,0,0,0,0,0,0,0,0,0,0,0,0,0,0,0,0,0,0,0,0,0],"sum_hessian":[8.7E1,4.2E1,4.5E1,9E0,3.3E1,3.3E1,1.2E1,8E0,1E0,2.2E1,1.1E1,1.3E1,2E1,9E0,3E0,6E0,5E0,9E0,4E0,5E0,1.5E1,2E0,4E0,2E0,3E0,3E0,6E0,3E0,1E0,1.3E1,2E0,1E0,1E0,1E0,3E0,1E0,1E0,1E0,2E0,1E0,2E0,1E0,1E0,1E0,1E0],"tree_param":{"num_deleted":"0","num_feature":"5","num_nodes":"45","size_leaf_vector":"1"}},{"base_weights":[-9.6817553E-1,-8.467354E0,5.8859243E0,-1.0295711E1,-3.1908493E0,3.3430974E0,1.0285854E1,-6.921389E-1,-8.116359E0,-3.563914E-1,6.395394E-1,1.4066129E0,1.9916683E-1,4.0602255E-1,7.3759764E-1,2.7513122E-2,-8.577204E0,2.3388138E-1,-8.1307983E-1,9.275872E-2,-1.0890198E-1,-4.530173E0,-9.305825E0,3.214569E-2,-8.509026E-2,4.4988632E-2,-5.3156283E-2,-3.3879396E-1,-7.74409E-1,-1.0389519E-1,-4.8245797E-1,-1.8878937E-3,-5.619278E-2],"categories":[],"categories_nodes":[],"categories_segments":[],"categories_sizes":[],"default_left":[0,0,0,0,0,0,0,0,0,0,0,0,0,0,0,0,0,0,0,0,0,0,0,0,0,0,0,0,0,0,0,0,0],"id":37,"left_children":[1,3,5,7,9,11,13,-1,15,-1,17,19,-1,-1,-1,-1,21,-1,23,-1,25,27,29,-1,-1,-1,-1,-1,31,-1,-1,-1,-1],"loss_changes":[4.4188486E3,3.6268848E2,4.6908508E2,1.1955615E2,1.8552045E2,3.15914E1,3.4942017E1,0E0,8.8592896E1,0E0,4.4863914E1,6.3202477E0,0E0,0E0,0E0,0E0,1.6817993E1,0E0,8.857985E0,0E0,3.8440747E0,3.6924416E1,1.9655518E1,0E0,0E0,0E0,0E0,0E0,7.2982633E-1,0E0,0E0,0E0,0E0],"parents":[2147483647,0,0,1,1,2,2,3,3,4,4,5,5,6,6,8,8,10,10,11,11,16,16,18,18,20,20,21,21,22,22,28,28],"right_children":[2,4,6,8,10,12,14,-1,16,-1,18,20,-1,-1,-1,-1,22,-1,24,-1,26,28,30,-1,-1,-1,-1,-1,32,-1,-1,-1,-1],"split_conditions":[2.1146606E2,2.1287666E2,2.5297057E2,1.433E2,2.0936249E1,2.266791E2,3.0573572E2,-6.921389E-1,3.3885838E1,-3.563914E-1,2.3476982E1,4.133414E1,1.9916683E-1,4.0602255E-1,7.3759764E-1,2.7513122E-2,1.7839914E2,2.3388138E-1,2.3163838E2,9.275872E-2,2.6011461E1,2.1618301E1,2.00351E1,3.214569E-2,-8.509026E-2,4.4988632E-2,-5.3156283E-2,-3.3879396E-1,2.2673138E1,-1.0389519E-1,-4.8245797E-1,-1.8878937E-3,-5.619278E-2],"split_indices":[3,4,3,3,0,3,3,0,1,0,0,1,0,0,0,0,4,0,4,0,0,0,0,0,0,0,0,0,0,0,0,0,0],"split_type":[0,0,0,0,0,0,0,0,0,0,0,0,0,0,0,0,0,0,0,0,0,0,0,0,0,0,0,0,0,0,0,0,0],"sum_hessian":[8.4E1,4E1,4.4E1,2.9E1,1.1E1,2.9E1,1.5E1,9E0,2E1,5E0,6E0,8E0,2.1E1,1.2E1,3E0,1E0,1.9E1,1E0,5E0,6E0,2E0,4E0,1.5E1,2E0,3E0,1E0,1E0,2E0,2E0,1E0,1.4E1,1E0,1E0],"tree_param":{"num_deleted":"0","num_feature":"5","num_nodes":"33","size_leaf_vector":"1"}},{"base_weights":[1.8792549E-1,-7.8402867E0,6.2856083E0,-1.2038336E1,-4.5790224E0,4.3687534E0,1.1331775E0,-8.9192736E-1,-4.9677762E-1,-3.1515503E-1,-7.2975693E0,2.8451877E0,3.5238075E-1,-1.3636576E0,2.2803421E-1,-1.0660223E-1,-7.9808197E0,3.6847267E-1,2.4487305E0,2.5590515E-1,-1.3552444E-1,-9.215524E0,-3.207531E0,1.2293625E0,1.6544364E-1,5.0542194E-2,-5.843353E-1,-1.1668358E-1,-4.8920232E-1,1.7211532E-2,-2.2530976E-1,1.4118676E0,-2.8580094E-2,-4.1984558E-2,-1.8405914E-3,3.944397E-1,1.8202311E0,9.206734E-1,-4.2762376E-2,1.9853802E0,1.2475967E-2,5.2348834E-2,1.3544083E-2,2.6094055E-2,1.0599486E-1],"categories":[],"categories_nodes":[],"categories_segments":[],"categories_sizes":[],"default_left":[0,0,0,0,0,0,0,0,0,0,0,0,0,0,0,0,0,0,0,0,0,0,0,0,0,0,0,0,0,0,0,0,0,0,0,0,0,0,0,0,0,0,0,0,0],"id":38,"left_children":[1,3,5,7,9,11,-1,-1,-1,13,15,17,-1,19,-1,-1,21,-1,23,25,-1,27,29,31,-1,-1,33,-1,-1,-1,-1,35,-1,-1,-1,37,39,41,-1,43,-1,-1,-1,-1,-1],"loss_changes":[4.3082354E3,4.6513184E2,1.4706951E3,1.7909668E1,2.643052E2,1.6769354E2,0E0,0E0,0E0,5.7342514E1,3.2395325E1,3.7558212E1,0E0,2.0325129E1,0E0,0E0,4.1164124E1,0E0,2.7397095E1,3.7623227E0,0E0,1.2379639E1,2.0001354E1,5.408619E0,0E0,0E0,3.885293E-1,0E0,0E0,0E0,0E0,4.683277E0,0E0,0E0,0E0,4.075541E0,1.83922E0,4.467678E-2,0E0,4.6858978E-1,0E0,0E0,0E0,0E0,0E0],"parents":[2147483647,0,0,1,1,2,2,3,3,4,4,5,5,9,9,10,10,11,11,13,13,16,16,18,18,19,19,21,21,22,22,23,23,26,26,31,31,35,35,36,36,37,37,39,39],"right_children":[2,4,6,8,10,12,-1,-1,-1,14,16,18,-1,20,-1,-1,22,-1,24,26,-1,28,30,32,-1,-1,34,-1,-1,-1,-1,36,-1,-1,-1,38,40,42,-1,44,-1,-1,-1,-1,-1],"split_conditions":[1.958116E2,1.5711731E2,3.0627396E2,1.00929665E2,2.3476982E1,2.5112529E2,1.1331775E0,-8.9192736E-1,-4.9677762E-1,2.3387638E1,1.7087177E2,1.7937168E1,3.5238075E-1,1.857096E2,2.2803421E-1,-1.0660223E-1,2.9441025E1,3.6847267E-1,2.266791E2,1.7700851E2,-1.3552444E-1,3.674546E1,3.037753E1,4.6748146E1,1.6544364E-1,5.0542194E-2,1.9152576E1,-1.1668358E-1,-4.8920232E-1,1.7211532E-2,-2.2530976E-1,2.1775108E1,-2.8580094E-2,-4.1984558E-2,-1.8405914E-3,3.8219162E1,2.7058057E2,2.0892096E1,-4.2762376E-2,2.08525E2,1.2475967E-2,5.2348834E-2,1.3544083E-2,2.6094055E-2,1.0599486E-1],"split_indices":[3,3,3,3,0,3,0,0,0,0,3,0,0,4,0,0,0,0,3,3,0,1,0,1,0,0,0,0,0,0,0,0,0,0,0,1,4,0,0,3,0,0,0,0,0],"split_type":[0,0,0,0,0,0,0,0,0,0,0,0,0,0,0,0,0,0,0,0,0,0,0,0,0,0,0,0,0,0,0,0,0,0,0,0,0,0,0,0,0,0,0,0,0],"sum_hessian":[8.6E1,3.7E1,4.9E1,1.5E1,2.2E1,4.5E1,4E0,2E0,1.3E1,9E0,1.3E1,3E1,1.5E1,8E0,1E0,2E0,1.1E1,1E0,2.9E1,4E0,4E0,8E0,3E0,1.3E1,1.6E1,2E0,2E0,1E0,7E0,1E0,2E0,1.2E1,1E0,1E0,1E0,4E0,8E0,3E0,1E0,7E0,1E0,2E0,1E0,1E0,6E0],"tree_param":{"num_deleted":"0","num_feature":"5","num_nodes":"45","size_leaf_vector":"1"}},{"base_weights":[4.853301E-2,-6.973938E0,4.359725E0,-1.4978726E1,-5.140516E0,2.5499065E0,8.8380165E0,-3.3502504E-1,-8.7213576E-1,-5.6244416E0,2.2233354E-1,-3.0054322E-1,2.905312E0,3.545963E-1,7.020218E-1,-3.6308496E0,-7.0173073E0,1.6455833E0,3.8196397E0,-3.4350237E-1,-1.648166E0,-1.6908036E-1,-8.362479E0,3.5926095E-1,9.38647E-1,4.1311975E0,9.3589626E-2,-2.81456E0,8.0506516E-1,-8.778189E0,-1.05134584E-1,-2.1075439E-2,1.2143587E0,2.1238136E-1,5.0886538E-2,-1.615332E-1,-5.9143323E-2,4.8857626E-2,7.220078E-3,-1.13766484E-1,-4.6239573E-1,2.8148651E-2,-2.9904937E-2,3.793396E-1,1.5104325E0,8.9110947E-1,-4.1693497E-2,1.6896787E0,-2.5695802E-3,5.0603744E-2,1.3205337E-2,1.00396864E-1,7.898712E-1,-5.4476928E-2,8.897603E-2],"categories":[],"categories_nodes":[],"categories_segments":[],"categories_sizes":[],"default_left":[0,0,0,0,0,0,0,0,0,0,0,0,0,0,0,0,0,0,0,0,0,0,0,0,0,0,0,0,0,0,0,0,0,0,0,0,0,0,0,0,0,0,0,0,0,0,0,0,0,0,0,0,0,0,0],"id":39,"left_children":[1,3,5,7,9,11,13,-1,-1,15,-1,-1,17,-1,-1,19,21,23,25,-1,27,-1,29,-1,31,33,-1,35,37,39,-1,41,43,-1,-1,-1,-1,-1,-1,-1,-1,-1,-1,45,47,49,-1,51,-1,-1,-1,-1,53,-1,-1],"loss_changes":[2.7854495E3,4.366671E2,4.39443E2,5.5098877E0,1.6419476E2,1.452504E2,4.5768677E1,0E0,0E0,5.5048584E1,0E0,0E0,4.0938507E1,0E0,0E0,7.8589264E1,4.9971558E1,6.766284E1,6.225189E0,0E0,3.0880245E1,0E0,1.0167053E1,0E0,4.788514E0,2.5645752E0,0E0,9.3123245E-1,3.1366515E-1,9.50354E0,0E0,2.0217614E0,2.8882122E0,0E0,0E0,0E0,0E0,0E0,0E0,0E0,0E0,0E0,0E0,3.8474896E0,2.886345E0,3.608656E-2,0E0,9.91333E-1,0E0,0E0,0E0,0E0,9.378683E0,0E0,0E0],"parents":[2147483647,0,0,1,1,2,2,3,3,4,4,5,5,6,6,9,9,12,12,15,15,16,16,17,17,18,18,20,20,22,22,24,24,25,25,27,27,28,28,29,29,31,31,32,32,43,43,44,44,45,45,47,47,52,52],"right_children":[2,4,6,8,10,12,14,-1,-1,16,-1,-1,18,-1,-1,20,22,24,26,-1,28,-1,30,-1,32,34,-1,36,38,40,-1,42,44,-1,-1,-1,-1,-1,-1,-1,-1,-1,-1,46,48,50,-1,52,-1,-1,-1,-1,54,-1,-1],"split_conditions":[1.9415695E2,1.3244444E2,2.5223875E2,3.425795E1,2.6053625E2,1.7219866E1,3.0573572E2,-3.3502504E-1,-8.7213576E-1,2.3387638E1,2.2233354E-1,-3.0054322E-1,2.2728052E2,3.545963E-1,7.020218E-1,1.5446992E2,1.7087177E2,1.7937168E1,2.6273737E2,-3.4350237E-1,2.0793459E1,-1.6908036E-1,2.9441025E1,3.5926095E-1,2.1100977E2,2.5180449E2,9.3589626E-2,1.740165E2,1.7700851E2,3.674546E1,-1.05134584E-1,2.3163838E2,2.1775108E1,2.1238136E-1,5.0886538E-2,-1.615332E-1,-5.9143323E-2,4.8857626E-2,7.220078E-3,-1.13766484E-1,-4.6239573E-1,2.8148651E-2,-2.9904937E-2,3.8219162E1,2.7058057E2,2.0892096E1,-4.1693497E-2,4.133414E1,-2.5695802E-3,5.0603744E-2,1.3205337E-2,1.00396864E-1,4.2738293E1,-5.4476928E-2,8.897603E-2],"split_indices":[3,3,3,1,4,0,3,0,0,0,0,0,3,0,0,3,3,0,4,0,0,0,0,0,3,3,0,3,3,1,0,4,0,0,0,0,0,0,0,0,0,0,0,1,4,0,0,1,0,0,0,0,1,0,0],"split_type":[0,0,0,0,0,0,0,0,0,0,0,0,0,0,0,0,0,0,0,0,0,0,0,0,0,0,0,0,0,0,0,0,0,0,0,0,0,0,0,0,0,0,0,0,0,0,0,0,0,0,0,0,0,0,0],"sum_hessian":[9E1,3.4E1,5.6E1,5E0,2.9E1,4.1E1,1.5E1,2E0,3E0,2.8E1,1E0,1E0,4E1,1.3E1,2E0,1.3E1,1.5E1,1.8E1,2.2E1,4E0,9E0,5E0,1E1,1E0,1.7E1,1.8E1,4E0,6E0,3E0,9E0,1E0,4E0,1.3E1,1.7E1,1E0,4E0,2E0,2E0,1E0,1E0,8E0,2E0,2E0,4E0,9E0,3E0,1E0,8E0,1E0,2E0,1E0,5E0,3E0,1E0,2E0],"tree_param":{"num_deleted":"0","num_feature":"5","num_nodes":"55","size_leaf_vector":"1"}},{"base_weights":[-2.8746033E-1,-6.203178E0,4.627443E0,-8.92947E0,-3.6906128E0,2.6830094E0,9.019106E0,-9.404877E0,-2.1188736E-2,-4.279261E0,2.1677513E-1,1.6255509E0,3.9140868E0,9.33617E0,1.2243195E-1,-4.9399763E-1,-1.9472708E-1,-2.4309857E0,-6.069266E0,3.5027924E-1,9.736762E-1,4.185575E0,7.164714E-2,2.8493398E-1,5.4486334E-1,-1.2736244E0,-3.7965667E0,-7.7603707E0,-2.8260865E0,1.6691284E-1,1.6830719E0,4.4825206E0,1.7015839E0,-1.3245602E-1,8.149719E-2,-5.70179E-2,-2.0877647E-1,-1.1092224E-1,-4.2125335E-1,-4.242452E-1,-2.1429494E-1,-7.770813E-1,9.257558E-1,9.196558E-2,7.0540875E-1,2.4509202E-1,8.651937E-2,2.1748735E-2,1.0587006E-1,6.6672516E-1,-5.6485366E-2,-4.7895815E-2,1.6077423E-2,-4.491679E-2,-6.251094E-2,7.687664E-2,-1.985321E-1,-2.5054931E-3,5.541115E-2,-1.9748688E-3,4.5764923E-2,1.2875366E-2,-1.6244126E-2,1.2228012E-2,-2.7117921E-2],"categories":[],"categories_nodes":[],"categories_segments":[],"categories_sizes":[],"default_left":[0,0,0,0,0,0,0,0,0,0,0,0,0,0,0,0,0,0,0,0,0,0,0,0,0,0,0,0,0,0,0,0,0,0,0,0,0,0,0,0,0,0,0,0,0,0,0,0,0,0,0,0,0,0,0,0,0,0,0,0,0,0,0,0,0],"id":40,"left_children":[1,3,5,7,9,11,13,15,-1,17,-1,19,21,23,-1,-1,-1,25,27,-1,29,31,-1,-1,-1,33,35,37,39,41,43,45,47,-1,49,-1,-1,-1,-1,51,-1,53,55,-1,57,-1,-1,-1,-1,59,-1,-1,-1,61,-1,-1,63,-1,-1,-1,-1,-1,-1,-1,-1],"loss_changes":[2.500095E3,2.3419421E2,3.7714868E2,6.880029E1,1.224931E2,3.7899094E1,6.3046875E0,6.0251465E0,0E0,5.4722534E1,0E0,6.3320988E1,4.1063385E0,1.1720093E1,0E0,0E0,0E0,1.4130249E1,3.2914062E1,0E0,1.0593048E1,1.9615479E0,0E0,0E0,0E0,1.5127609E1,2.7142334E-1,3.4116516E0,1.57129135E1,7.882821E0,2.3003006E-1,4.2121735E0,6.5901756E-1,0E0,4.2973585E0,0E0,0E0,0E0,0E0,1.5020418E0,0E0,1.675916E0,4.4321313E0,0E0,9.685339E-1,0E0,0E0,0E0,0E0,7.383442E-1,0E0,0E0,0E0,3.3766478E-1,0E0,0E0,5.8967966E-1,0E0,0E0,0E0,0E0,0E0,0E0,0E0,0E0],"parents":[2147483647,0,0,1,1,2,2,3,3,4,4,5,5,6,6,7,7,9,9,11,11,12,12,13,13,17,17,18,18,20,20,21,21,25,25,26,26,27,27,28,28,29,29,30,30,31,31,32,32,34,34,39,39,41,41,42,42,44,44,49,49,53,53,56,56],"right_children":[2,4,6,8,10,12,14,16,-1,18,-1,20,22,24,-1,-1,-1,26,28,-1,30,32,-1,-1,-1,34,36,38,40,42,44,46,48,-1,50,-1,-1,-1,-1,52,-1,54,56,-1,58,-1,-1,-1,-1,60,-1,-1,-1,62,-1,-1,64,-1,-1,-1,-1,-1,-1,-1,-1],"split_conditions":[1.958116E2,1.5711731E2,2.532041E2,2.7467268E1,2.6808377E2,2.3915518E2,2.8942224E2,2.2308502E1,-2.1188736E-2,2.6591154E1,2.1677513E-1,1.7937168E1,5.1718193E1,2.6012665E2,1.2243195E-1,-4.9399763E-1,-1.9472708E-1,3.9475925E1,2.8746479E1,3.5027924E-1,2.1982526E2,2.7373035E1,7.164714E-2,2.8493398E-1,5.4486334E-1,2.0793459E1,1.5750745E2,3.674546E1,3.037753E1,4.2738293E1,2.8584246E1,2.6273737E2,2.771152E1,-1.3245602E-1,2.5167326E1,-5.70179E-2,-2.0877647E-1,-1.1092224E-1,-4.2125335E-1,2.951805E1,-2.1429494E-1,3.8219162E1,2.3163838E2,9.196558E-2,2.9212421E1,2.4509202E-1,8.651937E-2,2.1748735E-2,1.0587006E-1,2.2673138E1,-5.6485366E-2,-4.7895815E-2,1.6077423E-2,2.1775108E1,-6.251094E-2,7.687664E-2,2.620632E1,-2.5054931E-3,5.541115E-2,-1.9748688E-3,4.5764923E-2,1.2875366E-2,-1.6244126E-2,1.2228012E-2,-2.7117921E-2],"split_indices":[3,3,3,0,4,3,4,0,0,0,0,0,1,3,0,0,0,1,0,0,3,0,0,0,0,0,3,1,0,1,0,4,0,0,0,0,0,0,0,0,0,1,4,0,0,0,0,0,0,0,0,0,0,0,0,0,0,0,0,0,0,0,0,0,0],"split_type":[0,0,0,0,0,0,0,0,0,0,0,0,0,0,0,0,0,0,0,0,0,0,0,0,0,0,0,0,0,0,0,0,0,0,0,0,0,0,0,0,0,0,0,0,0,0,0,0,0,0,0,0,0,0,0,0,0,0,0,0,0,0,0,0,0],"sum_hessian":[8.4E1,3.8E1,4.6E1,1.7E1,2.1E1,3.3E1,1.3E1,1.6E1,1E0,2E1,1E0,1.9E1,1.4E1,1.2E1,1E0,1.4E1,2E0,1.1E1,9E0,1E0,1.8E1,1.2E1,2E0,5E0,7E0,7E0,4E0,5E0,4E0,9E0,9E0,1E1,2E0,3E0,4E0,1E0,3E0,1E0,4E0,2E0,2E0,4E0,5E0,7E0,2E0,8E0,2E0,1E0,1E0,3E0,1E0,1E0,1E0,2E0,2E0,3E0,2E0,1E0,1E0,1E0,2E0,1E0,1E0,1E0,1E0],"tree_param":{"num_deleted":"0","num_feature":"5","num_nodes":"65","size_leaf_vector":"1"}},{"base_weights":[2.45595E-1,-4.8546605E0,6.71766E0,-6.7605186E0,-1.0937033E0,4.6385922E0,1.135516E0,-7.8285346E0,-1.980388E0,3.4152222E-1,-2.0158653E0,2.4486992E0,3.6246055E-1,-5.4994524E-1,-6.485997E0,-3.71949E0,2.113556E-1,-3.1908042E0,4.7416687E-1,1.3842735E0,1.4576845E-1,-1.3033447E0,-3.6619577E-1,-4.8219147E0,-5.0488025E-2,-5.054245E0,-7.9556274E-1,9.8141783E-1,-5.1552203E-2,7.9799324E-2,-2.4429322E-3,2.3196412E-2,-1.0235392E-1,-5.5592347E-2,-2.8439942E-1,-1.0945078E0,-6.7604866E0,2.566096E-2,-7.891293E-2,1.1075478E0,1.1922455E-2,-8.7983705E-2,5.8956146E-3,-9.7988896E-2,-3.853732E-1,1.2553406E-2,6.546758E-2],"categories":[],"categories_nodes":[],"categories_segments":[],"categories_sizes":[],"default_left":[0,0,0,0,0,0,0,0,0,0,0,0,0,0,0,0,0,0,0,0,0,0,0,0,0,0,0,0,0,0,0,0,0,0,0,0,0,0,0,0,0,0,0,0,0,0,0],"id":41,"left_children":[1,3,5,7,9,11,-1,13,15,-1,17,19,-1,-1,21,23,-1,25,27,29,-1,31,-1,33,-1,35,37,39,-1,-1,-1,-1,-1,-1,-1,41,43,-1,-1,45,-1,-1,-1,-1,-1,-1,-1],"loss_changes":[2.7723743E3,3.29495E2,1.1248993E3,1.4275952E2,1.3799417E2,1.7662604E2,0E0,3.506958E1,9.129102E1,0E0,4.832315E1,5.8990326E0,0E0,0E0,7.730713E1,1.3054649E1,0E0,4.5076317E1,5.5930033E0,2.5052786E0,0E0,6.2072196E0,0E0,6.528595E0,0E0,3.31382E1,6.9562616E0,2.0445919E-1,0E0,0E0,0E0,0E0,0E0,0E0,0E0,2.6268704E0,3.0797272E0,0E0,0E0,3.626275E-1,0E0,0E0,0E0,0E0,0E0,0E0,0E0],"parents":[2147483647,0,0,1,1,2,2,3,3,4,4,5,5,7,7,8,8,10,10,11,11,14,14,15,15,17,17,18,18,19,19,21,21,23,23,25,25,26,26,27,27,35,35,36,36,39,39],"right_children":[2,4,6,8,10,12,-1,14,16,-1,18,20,-1,-1,22,24,-1,26,28,30,-1,32,-1,34,-1,36,38,40,-1,-1,-1,-1,-1,-1,-1,42,44,-1,-1,46,-1,-1,-1,-1,-1,-1,-1],"split_conditions":[2.1949405E2,1.8734938E2,3.158728E2,2.3668448E2,2.7318123E1,2.4805626E2,1.135516E0,1.5679384E2,1.7087177E2,3.4152222E-1,2.1146606E2,2.3383191E2,3.6246055E-1,-5.4994524E-1,1.7928082E2,2.0936249E1,2.113556E-1,4.228502E1,2.620632E1,2.8844446E2,1.4576845E-1,3.3885838E1,-3.6619577E-1,2.0370111E1,-5.0488025E-2,1.8820097E2,4.5522343E1,2.4285114E1,-5.1552203E-2,7.9799324E-2,-2.4429322E-3,2.3196412E-2,-1.0235392E-1,-5.5592347E-2,-2.8439942E-1,2.2677622E1,3.737024E1,2.566096E-2,-7.891293E-2,2.1775108E1,1.1922455E-2,-8.7983705E-2,5.8956146E-3,-9.7988896E-2,-3.853732E-1,1.2553406E-2,6.546758E-2],"split_indices":[3,3,3,4,1,3,0,4,3,0,3,3,0,0,4,0,0,1,0,4,0,1,0,0,0,3,1,0,0,0,0,0,0,0,0,0,1,0,0,0,0,0,0,0,0,0,0],"split_type":[0,0,0,0,0,0,0,0,0,0,0,0,0,0,0,0,0,0,0,0,0,0,0,0,0,0,0,0,0,0,0,0,0,0,0,0,0,0,0,0,0,0,0,0,0,0,0],"sum_hessian":[8.2E1,4.6E1,3.6E1,3E1,1.6E1,3.3E1,3E0,2.4E1,6E0,1E0,1.5E1,1.9E1,1.4E1,5E0,1.9E1,5E0,1E0,1E1,5E0,7E0,1.2E1,3E0,1.6E1,3E0,2E0,5E0,5E0,4E0,1E0,6E0,1E0,1E0,2E0,1E0,2E0,2E0,3E0,2E0,3E0,3E0,1E0,1E0,1E0,1E0,2E0,1E0,2E0],"tree_param":{"num_deleted":"0","num_feature":"5","num_nodes":"47","size_leaf_vector":"1"}},{"base_weights":[-7.287598E-2,-6.7378726E0,4.654537E0,-7.9521685E0,-3.3430252E0,3.058257E0,1.0002844E0,-9.369421E0,-5.281714E0,-7.2170514E-1,-5.112296E0,2.1845446E0,3.2110125E-1,-9.844661E0,-4.4139482E-2,-3.1709614E-1,-1.2645188E-1,-8.3160974E-2,7.742157E-1,-6.5160766E0,-1.0685629E0,3.3298418E-1,1.9129635E0,-1.4561653E-1,-5.0563306E-1,5.7483674E-3,5.231781E-2,-9.899445E-2,-3.5775757E-1,1.5033722E-2,-9.517594E-2,5.9824055E-1,2.7304566E0,-8.897583E-1,1.1245294E0,3.154655E0,1.9037808E0,1.1715189E-1,-1.6000824E0,1.8738174E-1,1.3869355E0,3.4547613E0,4.0132143E-2,4.237423E-2,2.1939564E0,-1.3388062E-2,2.2174453E-2,-9.553909E-2,-2.4467086E-2,7.976227E-1,-4.1083526E-2,1.5516256E0,-2.381897E-3,3.6729085E0,7.5165056E-2,2.7574157E-2,